6913 50
Harry -0.950623 0.064156 0.053061 -0.480334 -0.735711 -0.292158 0.157250 -0.060229 0.023440 0.015252 -0.575866 -0.450157 -0.574491 0.454663 -0.531680 0.088341 -0.581460 -0.942788 -0.424397 0.056651 0.052181 -0.397802 -0.250986 0.313339 -0.054831 0.159584 0.011788 0.165659 -0.435765 -0.073502 0.033585 -0.625360 0.234785 -0.093047 0.154271 0.156233 -0.566194 0.054715 -0.161727 0.132087 -0.073779 -0.367849 -0.536570 0.134898 0.333910 -0.060885 -0.312299 -0.421955 0.113067 0.191649
Potter -0.656319 -0.040158 0.469162 -0.214356 -0.655190 -0.134727 0.046146 -0.092970 0.160157 -0.174076 -0.638342 -0.709254 -0.446143 -0.060566 -0.365327 0.030130 -0.392178 -0.733467 -0.244841 -0.284324 0.108966 -0.429591 -0.053563 0.354051 -0.469949 0.040842 0.071309 0.156414 -0.546821 -0.066054 0.177330 -0.510629 0.060532 0.122742 -0.065853 -0.227646 -0.922930 0.050879 0.149599 0.257049 -0.424691 -0.147616 -0.609394 0.343064 0.231254 -0.395689 -0.497757 0.194572 0.098624 0.353822
and -0.414301 0.081381 0.157824 -0.295364 -0.338188 -0.501550 0.202052 0.078781 0.073989 0.039519 -0.496813 -0.523681 -0.490234 0.221412 -0.674907 0.248543 -0.741987 -0.456460 -0.252470 -0.064098 -0.000634 -0.610996 -0.206232 0.151970 -0.172656 0.055233 0.276340 0.179284 -0.466946 0.109472 0.093817 -0.500174 0.012573 -0.073619 0.312830 0.023717 -0.521733 0.084794 0.136273 0.120561 0.086991 -0.445537 -0.649291 0.139972 0.138586 -0.115491 -0.401072 -0.529406 0.174532 0.307616
the -0.165961 0.042099 0.117301 -0.227967 -0.575940 -0.560638 0.415488 -0.036251 0.080309 0.046989 -0.383155 -0.726479 -0.793636 0.153615 -0.609371 0.102586 -0.390336 -0.382471 -0.307586 -0.261193 -0.364176 -0.724069 -0.512230 0.090177 -0.200481 0.278329 0.202662 -0.116330 -0.262045 0.189435 0.154580 -0.584493 -0.013294 -0.044921 0.060506 0.201185 -0.351530 0.261067 0.336515 0.189201 -0.196167 -0.475105 -0.636176 0.175320 0.117821 0.033532 -0.408819 -0.670500 0.038346 0.314227
Sorcerers -0.222713 0.325890 0.109083 -0.370740 -0.729623 -0.800064 0.186234 0.102466 0.647369 -0.442179 -0.388566 -0.590225 -0.439033 -0.303610 -0.044806 0.047174 -0.115232 -0.390542 -0.442910 0.080010 0.011282 -0.527612 -0.022096 -0.033512 -0.152349 0.352276 0.417519 -0.118390 -0.673441 -0.252788 0.376331 -0.594290 0.311444 -0.005257 -0.320087 -0.433485 -0.242080 0.184535 0.190199 0.115997 0.022200 -0.155588 -0.669411 0.525919 -0.250681 0.181950 -0.445003 -0.232426 -0.070439 0.422307
Stone -0.407297 0.216281 0.486034 -0.514538 -1.157139 -0.237805 0.214433 -0.015553 0.065957 -0.029115 -0.731569 -0.621757 -0.464573 0.173012 -0.213993 0.374977 -0.725959 -0.525010 -0.190598 -0.005932 0.029329 -0.336236 -0.528672 0.213378 -0.628944 -0.120891 -0.024943 -0.125388 -0.508410 -0.108007 0.273004 -0.534163 -0.327738 -0.423124 -0.135736 -0.354883 -0.356827 0.175582 -0.057989 -0.120267 -0.065100 -0.296895 -1.013971 0.147028 0.254034 -0.242249 -0.729855 -0.078500 0.176368 0.028189
CHAPTER -0.158094 0.157502 0.865261 0.204658 -0.385318 0.187839 0.279307 -0.281760 0.321874 0.464854 -0.480971 -0.121508 -0.169538 0.351358 -0.366369 0.662360 0.030063 -0.406732 -0.270447 0.172785 -0.209615 -0.612713 0.170214 0.039110 -0.039770 0.573286 -0.256635 0.215811 -0.425536 0.451889 0.703745 -0.269866 -0.110872 0.333685 0.272321 -0.188374 0.178337 0.199537 -0.362908 0.370157 -0.063010 -0.342725 -0.557299 0.555958 0.131534 -0.057150 -0.259778 0.261144 -0.047646 -0.175762
ONE 0.078459 -0.098375 0.266512 -0.221133 0.000440 -0.283237 -0.063118 0.267690 0.273768 0.022974 -0.454502 -0.022177 0.324291 -0.078257 -0.346095 0.210420 -0.446535 0.281517 0.153049 0.146649 0.088168 -0.399758 -0.141898 0.567241 0.285957 0.644756 0.135771 -0.288699 0.023406 -0.002869 0.057201 0.351257 0.439640 0.167480 0.385734 0.360385 -0.441238 -0.181194 -0.089691 -0.265923 0.009552 0.065932 -0.069203 0.525484 -0.003145 0.006789 0.052959 0.113060 -0.275611 0.148881
THE -0.576665 0.918043 0.939972 -0.342328 0.011817 0.132985 -0.099040 -0.123194 0.329022 -0.117063 -0.005046 -0.344970 -0.532636 -0.277048 -0.790733 0.774633 -0.379555 -0.549322 -0.314600 0.437067 -0.022780 -0.030582 -0.340662 0.743577 -0.145006 0.019094 0.482473 0.425399 -0.137855 0.254250 0.535519 -0.528625 0.002473 0.204679 0.336571 0.333686 0.054213 0.446601 -0.078790 0.586327 0.500721 -0.035907 0.056536 0.419320 0.196107 -0.100145 -0.076288 -0.524657 0.459552 0.323548
BOY -0.226279 0.490572 0.359456 -0.249968 -0.352165 -0.262115 0.232600 -0.157125 0.546900 0.167135 -0.012550 0.040792 0.159527 -0.314963 -0.635466 0.417986 0.077158 -0.090719 -0.070347 -0.130007 0.062226 -0.145783 -0.491518 -0.061457 -0.110498 0.285194 -0.216487 -0.111727 -0.412438 0.157722 0.187440 -0.103165 0.338411 0.488014 -0.206052 0.624823 -0.259228 0.083792 -0.190970 -0.253454 -0.206284 0.100592 -0.290203 0.080652 0.409965 -0.231091 -0.277314 0.406626 -0.056106 0.436802
WHO -0.360071 0.750375 0.671951 -0.076067 -0.019605 -0.407138 0.225170 -0.105500 -0.072322 -0.233331 -0.116594 0.232226 0.014461 -0.142167 -0.080872 0.016181 -0.089740 0.309084 -0.415680 0.134262 0.025670 -0.114703 -0.115164 0.596228 0.254612 0.042196 -0.164379 -0.197847 -0.575786 -0.195969 0.588752 -0.141627 0.114446 0.137515 0.392382 0.332303 -0.115376 -0.093263 0.264501 -0.110208 -0.395150 0.011578 -0.616962 0.582413 -0.023821 0.109209 0.060656 0.122878 0.017374 -0.370659
LIVED -0.347838 0.620372 0.621207 0.400015 0.255787 0.037066 -0.060549 -0.281728 0.404295 0.371223 0.181121 -0.129124 0.003488 -0.346974 0.282541 0.582089 0.362234 0.161096 -0.209077 0.153445 0.213340 -0.151139 -0.109659 0.388221 0.281220 0.326101 0.246375 -0.356502 -0.500159 -0.031804 -0.045025 -0.500492 0.281498 -0.098589 0.274659 -0.002814 -0.519464 0.192439 0.261092 0.514294 0.220393 0.233129 0.386402 0.332023 0.575934 -0.383039 0.281668 -0.105477 0.160127 -0.164227
Mr -1.067354 0.022459 0.240639 -0.643102 -0.419687 -0.216288 0.133160 -0.075560 0.347522 -0.479704 -0.945936 -0.383999 0.037100 -0.044980 -0.836079 -0.016107 -0.459830 -0.564389 -0.350277 0.298998 0.466344 -0.129343 0.418548 0.512136 -1.062531 0.807170 -0.305875 0.049213 -0.088735 -0.286935 0.101869 -0.751661 0.043967 -0.117882 0.297222 -0.113495 -0.618681 -0.173396 0.109084 -0.155407 0.024488 -1.021197 -0.061703 0.195988 0.392640 -0.492304 0.117065 -0.029364 -0.295684 0.445296
Mrs -1.208433 -0.029760 0.667515 -0.188431 -0.225099 -0.379993 0.345188 0.133840 0.484900 -0.075382 -0.923733 -0.095209 -0.624666 -0.321313 -0.361181 0.092556 -0.558327 -0.263427 -0.619303 0.285298 -0.080246 -0.668663 -0.275026 0.491267 -0.440291 0.210190 -0.266781 0.123721 -0.080919 -0.299268 0.062670 -0.206446 -0.395600 -0.120434 0.104612 -0.101081 -0.544685 -0.436249 0.162286 0.015176 0.015617 -0.399395 -0.677478 0.253956 0.223889 0.063177 -0.182754 0.009671 -0.014522 0.193359
Dursley -1.264364 0.019657 0.796565 -0.544468 0.038163 -0.101686 0.021115 -0.190034 0.539287 0.440379 -0.716704 -0.867581 -0.235129 0.281125 -0.548113 -0.257813 -0.572198 -0.544066 -0.137825 -0.456049 0.002554 -0.341930 -0.544361 0.741153 -0.286928 0.152632 0.097243 0.374668 -0.470570 -0.014772 0.159012 -0.077371 -0.101861 -0.089222 -0.212736 -0.215696 -1.079135 -0.233975 -0.009958 0.131314 -0.362507 -0.189961 -0.873744 0.305872 -0.239968 -0.476966 0.162360 0.062649 -0.060079 -0.169191
of -0.247439 0.166143 0.080046 -0.119536 -0.505283 -0.479556 0.329279 0.335204 0.130214 0.152646 -0.463635 -0.855573 -0.493598 0.092225 -0.798139 0.351166 -0.331159 -0.185681 -0.436745 -0.332540 -0.173483 -0.532525 -0.433322 0.028317 -0.486499 0.195800 0.059744 -0.313595 -0.665673 -0.025380 0.192382 -0.265807 -0.053742 0.011074 0.111275 -0.163732 -0.563501 0.651135 0.453179 0.187088 0.199524 -0.435738 -0.188875 0.169557 0.052712 -0.169205 -0.424731 -0.320726 -0.042430 0.240302
number -0.734793 0.701324 0.627830 -0.678627 -0.425734 -0.402702 0.175344 -0.445798 0.639278 -0.195083 -0.569927 -0.301292 0.087463 0.211881 -0.919581 0.313309 -0.469860 -0.317137 -0.110740 0.094059 -0.152586 -0.373865 -0.430602 0.087330 0.148630 -0.249171 -0.099674 -0.505401 -0.404663 0.014439 0.210969 -0.532054 0.065957 0.364831 -0.196408 0.219379 -0.518982 -0.017286 -0.078221 -0.116721 -0.264416 -0.274147 -0.198442 0.520384 -0.136239 -0.496048 0.021241 -0.192795 0.118692 -0.126924
four -0.240938 0.083598 0.417241 -0.326965 -0.717365 -0.729785 0.239237 0.344377 0.382798 0.008148 -0.479500 -0.631498 -0.577699 0.064418 -0.465150 -0.128598 -0.450492 -0.425056 -0.346918 0.008532 -0.040753 -0.532475 -0.338257 0.534685 -0.451155 0.014671 -0.130764 -0.125180 -0.717523 0.201880 0.493463 -0.248166 0.004255 -0.085937 0.174539 -0.196296 -0.294465 -0.281103 -0.133160 0.229933 0.146555 -0.101638 -0.315412 0.159335 -0.015334 -0.051946 -0.379215 -0.277898 -0.087897 0.144455
Privet -0.330595 0.231901 0.579413 -0.104073 -0.777878 -0.376772 0.288125 -0.035778 0.272702 0.027184 -0.469595 -0.623267 0.094958 -0.079842 -0.877769 -0.000961 -0.436253 0.053765 -0.009877 -0.257807 -0.387792 -0.531559 -0.202254 0.646277 -0.458010 0.125395 -0.278858 0.476425 -0.652733 0.189971 0.229427 -0.924632 -0.443329 -0.019299 -0.325140 -0.082572 -0.759613 -0.308888 0.014873 -0.009567 0.215043 -0.511083 -0.091840 0.549034 0.196496 0.311071 0.141209 -0.291135 -0.324116 -0.165795
Drive -1.079071 0.371493 0.149632 -0.291908 -0.329785 -0.723491 -0.151716 -0.064147 0.379177 -0.554992 -0.917861 -0.096148 0.036995 0.127139 -1.053887 0.563288 0.148786 -0.588058 -0.308006 0.077418 -0.332584 -0.058174 -0.265259 0.699175 -0.127485 0.135374 0.189246 0.009599 -0.288910 0.102980 0.152359 -0.834550 -0.103964 -0.348028 -0.171622 -0.405709 -0.091997 0.177979 0.522695 -0.160266 0.222179 -0.484110 -0.175746 0.219701 0.030662 -0.167711 -0.203339 -0.035742 -0.494797 -0.063299
were -0.703452 0.152036 0.230952 -0.323369 -0.431651 -0.430990 -0.010198 -0.007616 0.059411 -0.336557 -0.725827 -0.595690 -0.193440 -0.061495 -0.379115 0.080127 -0.615221 -0.615583 -0.216974 0.036109 -0.006515 -0.771273 -0.141719 0.250049 -0.396105 0.100474 0.428373 -0.200266 -0.604705 0.058546 0.209685 -0.487769 0.233460 -0.042965 0.070627 0.167595 -0.549825 0.054162 0.126868 0.057652 0.298063 -0.232696 -0.705469 0.146747 0.009822 0.031709 -0.516621 -0.111179 0.134685 0.122346
proud -0.449131 0.525664 0.364903 -0.510975 -0.019234 -0.651865 0.092544 0.199568 0.376454 -0.143674 -0.363462 -0.516986 0.025453 -0.359541 -0.370446 -0.158737 -0.379317 -0.341581 0.086779 -0.131425 -0.227542 -0.618898 -0.427475 0.775351 0.220530 0.214985 -0.061029 -0.175555 -0.549619 0.001826 0.211148 -0.369517 -0.098114 -0.531379 0.048712 -0.087815 -0.211334 0.039871 0.225731 -0.144222 0.243227 -0.248863 -0.540757 0.507677 -0.171459 -0.110523 0.142470 -0.404246 0.334952 -0.137508
to -0.358632 0.055496 0.158183 -0.275258 -0.676037 -0.188420 0.121744 -0.148633 0.020410 -0.073091 -0.488110 -0.489236 -0.567023 0.155947 -0.625070 0.054552 -0.996892 -0.698649 -0.069139 0.310552 0.048885 -0.397427 0.084672 0.118534 -0.326431 0.079959 0.069682 -0.366684 -0.750003 0.222600 0.112601 -0.896329 0.238459 -0.268463 0.035989 -0.011349 -0.893964 -0.022419 0.082844 0.083622 0.229472 -0.430930 -1.086575 0.204190 0.308412 0.190554 -0.202404 -0.161575 -0.061295 0.079054
say -0.876797 0.065409 0.333891 -0.175007 -0.842413 -0.533266 -0.112111 -0.204933 0.048054 -0.216209 -0.670422 -0.663308 -0.348776 -0.071616 -0.372926 0.073883 -0.339203 -0.711784 -0.706407 -0.272656 0.017395 -0.270938 -0.345767 0.433014 -0.734143 -0.084313 0.197204 0.170177 -0.495097 -0.342510 0.112786 -0.519574 0.113306 -0.120708 -0.061038 0.211449 -0.573050 -0.061103 -0.028953 0.109932 0.231631 -0.229446 -0.302019 0.501225 0.507191 -0.250854 -0.396607 0.008573 0.078388 0.082707
that -0.837438 0.150965 0.139083 -0.526932 -0.784198 -0.539046 0.123649 -0.029041 0.128668 0.059154 -0.494432 -0.475950 -0.591939 0.164689 -0.270988 0.175692 -0.623774 -0.625331 -0.487277 -0.015590 -0.147336 -0.306419 -0.168564 0.232224 -0.264020 0.118553 0.036817 -0.176338 -0.484016 -0.141891 0.119490 -0.579416 0.309508 -0.052300 -0.026269 0.101698 -0.411292 0.168866 -0.135012 0.117555 0.187375 -0.303167 -0.357408 0.200331 0.200282 -0.275714 -0.538117 -0.220721 0.105564 0.110065
they -1.017863 0.262633 0.133926 -0.245693 -0.831481 -0.507968 0.052137 0.009140 0.010482 0.006828 -0.585750 -0.477592 -0.497892 0.443363 -0.575151 0.018663 -0.504275 -0.617755 -0.345659 -0.041087 0.085192 -0.403548 -0.486467 0.383281 -0.496073 0.056173 0.156818 -0.008244 -0.388016 -0.064866 0.033166 -0.538121 0.226304 -0.008264 0.094496 0.387089 -0.690478 0.011510 -0.139722 -0.195977 0.240008 -0.250794 -0.373409 0.096260 0.149307 -0.142447 -0.591706 -0.498520 0.134357 0.143397
perfectly -0.599955 0.727723 0.518099 -0.335730 -0.471261 -0.523027 0.302332 0.359362 0.113344 0.210102 -0.542361 -0.554193 -0.316545 -0.183432 0.064971 -0.062772 -0.464758 -0.538566 -0.495226 -0.382987 -0.552508 -0.464497 0.219859 0.304768 -0.275704 -0.033676 -0.260511 -0.210670 -0.534458 -0.355705 0.542631 -0.504993 0.464218 0.383681 -0.326879 0.195179 0.081967 0.094406 0.141493 0.256284 -0.027180 -0.186611 -0.579960 -0.112655 0.031643 0.006115 -0.171092 0.217309 0.064851 0.092016
normal -0.518745 0.047006 0.680106 0.096733 -0.728079 0.011661 -0.164581 0.144961 -0.014637 -0.339837 -0.539219 -0.886113 -0.439090 0.094163 0.031425 0.259917 -0.100588 -0.107832 0.033695 -0.485882 -0.194516 -0.751017 -0.162203 0.478013 -0.203823 0.475425 -0.070300 0.026955 -0.402085 0.054117 0.154191 -0.325758 0.203414 -0.191938 -0.285984 0.249058 -0.180110 0.290229 -0.319925 -0.103779 0.327913 -0.762883 -0.636654 0.546002 -0.214716 -0.517112 -0.313878 -0.473286 0.164259 0.076930
thank -0.207737 0.070076 0.797195 -0.184261 -0.519095 -0.638747 -0.181333 0.057007 0.527457 -0.030140 -0.581748 -0.488233 -0.323461 0.325372 -0.570884 -0.125609 -0.466100 0.009889 -0.342046 0.009745 -0.119888 -0.169034 0.271470 0.506491 -0.147025 -0.023390 0.313396 -0.443391 -0.484990 -0.413428 -0.152664 -0.553921 -0.303026 -0.190723 0.127334 -0.160396 -0.460150 -0.284286 -0.372360 0.403260 0.253283 -0.589275 0.120449 0.419244 0.139305 0.058759 -0.421743 0.408408 -0.257036 0.238339
you -0.544533 0.141323 0.133639 -0.367892 -0.713438 -0.223302 -0.119119 -0.097369 0.038549 0.111681 -0.266160 -0.576488 -0.634228 0.025885 -0.514622 0.081984 -0.687158 -1.023121 -0.360547 0.264183 -0.063531 -0.130656 -0.074752 0.349447 -0.970198 -0.026696 0.151068 -0.147514 -0.967526 -0.104886 0.065357 -0.972875 0.266848 -0.214976 -0.018643 0.045801 -0.972990 0.081637 0.074042 0.205424 0.007725 -0.260854 -0.142161 0.271712 0.347208 -0.016444 -0.826827 0.089093 0.073519 0.123412
very -0.793523 0.211120 0.142830 -0.412731 -0.523224 -0.365177 0.404432 -0.019818 0.226955 -0.040929 -0.800107 -0.462311 -0.549554 0.345223 -0.247407 0.237016 -0.333330 -0.286804 -0.392246 -0.158759 -0.217540 -0.615116 -0.033696 0.070710 -0.113018 0.182905 0.164067 -0.068542 -0.302348 -0.386663 0.359097 -0.415880 0.265211 0.159030 0.022663 0.033977 -0.378006 0.031148 0.041506 0.161886 -0.018091 -0.566234 -0.425889 0.138655 -0.032118 -0.382266 -0.503565 -0.224064 -0.282617 0.162147
much -1.113932 0.209938 0.159032 -0.082663 -1.028001 -0.425300 -0.033703 -0.050162 0.190872 -0.319106 -0.775450 -0.652980 -0.186839 0.054290 -0.457263 0.093828 -0.473516 -0.591158 -0.229122 0.184073 0.087156 -0.456622 -0.135719 0.385816 -0.307490 0.112669 -0.215535 -0.150916 -0.212339 -0.223528 0.150329 -0.696349 0.229458 0.163479 0.158445 0.153039 -0.983575 -0.120247 -0.181632 -0.093373 0.140066 -0.590667 -0.646414 0.163054 0.141987 -0.262728 -0.227136 -0.453610 0.135082 0.011735
They -0.505790 0.169415 0.056346 -0.254016 -0.613832 -0.484055 0.367045 -0.174102 0.076437 -0.095723 -0.819789 -0.281115 -0.450137 0.546297 -0.533412 0.129735 -0.582981 -0.581397 -0.231637 -0.182832 -0.253809 -0.799581 -0.622055 0.184159 -0.293228 0.118144 -0.015244 -0.026367 -0.352291 -0.115242 0.115424 -0.556782 0.180872 -0.210838 0.304665 0.197219 -0.593623 0.058361 -0.112861 -0.082412 0.167271 -0.388818 -0.647144 0.036739 0.101038 0.065018 -0.196294 -0.455725 0.404250 0.143314
last -0.690097 0.111417 0.237239 -0.460710 -0.227038 -0.840257 0.337452 -0.012774 0.346155 -0.129196 -0.989369 -0.527959 -0.391732 0.147233 -0.203012 0.190692 -0.489021 -0.541223 -0.220986 -0.332518 -0.396039 -0.681124 -0.182586 0.028837 0.011186 0.205150 -0.110491 -0.196319 -0.324111 0.193105 0.156727 -0.336219 -0.211946 -0.287885 -0.057436 -0.110476 -0.419715 0.043466 0.032645 0.268432 -0.175355 -0.431877 -0.515598 0.219477 0.048640 -0.409254 -0.434114 -0.481413 -0.090625 0.436225
people -0.699502 0.159867 0.277953 -0.248704 -0.419619 -0.578297 0.050322 0.124974 0.179331 -0.047833 -0.614866 -0.615583 -0.197257 0.325752 -0.630856 0.158598 -0.451226 -0.615222 -0.243002 -0.282933 -0.384179 -0.565382 -0.126302 0.160162 -0.493527 0.185785 -0.033825 -0.265596 -0.326779 -0.011875 0.166783 -0.248330 0.159445 -0.019996 -0.012841 -0.046470 -0.659654 0.206838 0.015999 0.205922 -0.126275 -0.314796 -0.371543 0.039986 0.120712 0.131568 -0.644591 -0.266434 0.145288 0.170535
youd -0.749139 0.348127 0.383022 -0.313368 -0.495944 -0.494246 -0.041642 0.121407 0.290038 0.022858 -0.441574 -0.328687 -0.496847 -0.071114 -0.618018 0.190252 -0.236556 -0.588574 -0.356665 -0.195110 -0.058683 -0.622612 -0.237406 0.326495 -0.108454 -0.194853 -0.265633 0.108292 -0.138733 -0.518015 0.242104 -0.694560 -0.017063 -0.344588 -0.081655 0.039853 -0.388005 -0.082501 -0.438838 0.207861 0.418496 -0.234529 -0.395873 0.326515 0.458973 -0.125751 -0.362649 0.055473 0.039158 0.051996
expect -0.888344 0.324896 0.212820 0.160191 -0.720906 -0.173400 0.044697 -0.311061 0.218127 -0.360054 -0.621772 -0.825784 -0.164038 0.107891 -0.713644 0.125993 -0.320912 -0.402138 -0.468269 -0.126044 -0.273504 -0.251451 0.010426 0.822188 -0.088800 -0.146004 0.105639 -0.504256 -0.459742 -0.089074 0.358468 -0.241165 -0.244971 -0.464109 -0.249770 -0.211535 -0.280438 -0.064827 0.031994 0.341749 -0.177731 -0.143172 -0.161620 0.498223 0.100834 0.209879 -0.468438 -0.048866 -0.284566 0.205957
be -0.385414 0.319930 0.088610 0.100007 -0.597333 -0.390957 0.157475 0.002687 0.069257 -0.370857 -0.655509 -0.907962 -0.195075 -0.153602 -0.482571 0.004418 -0.780931 -1.177428 -0.685421 -0.476582 0.143702 -0.226565 0.044294 0.110106 -0.622799 -0.079352 0.375422 -0.351483 -0.597001 -0.031247 0.196845 -0.776971 0.307702 -0.242548 0.051037 0.194766 -0.461282 0.098611 0.132144 0.024817 0.250348 -0.426076 -0.395388 0.323979 0.637180 0.158133 -0.485833 0.363816 -0.360595 0.053288
involved -0.117773 0.413641 0.172880 -0.221239 -0.759773 -0.464825 -0.136932 0.046990 0.557614 -0.003413 -0.347269 -0.350931 -0.100983 0.284566 -0.278837 -0.145990 -0.236449 -0.005777 -0.193001 -0.100783 -0.345537 -0.590287 -0.278135 0.388672 -0.128935 0.335607 -0.238283 -0.239340 -0.637402 -0.273233 0.338803 -0.187177 0.200411 -0.073590 0.130275 -0.095787 -0.234103 -0.286331 0.285950 0.137526 0.375539 0.075759 -0.694659 0.719365 0.084605 -0.054035 -0.709274 -0.513642 -0.094481 -0.276683
in -0.189633 0.109509 0.159608 -0.567840 -0.546812 -0.549530 0.246095 0.106690 0.178697 0.169012 -0.453385 -0.630113 -0.516420 0.206606 -0.388176 0.259414 -0.399621 -0.268423 -0.491271 -0.247107 0.006414 -0.604700 -0.292778 -0.005952 -0.287827 0.256312 0.113478 -0.128362 -0.643339 0.067327 0.150052 -0.559660 -0.093297 0.044042 0.180256 0.052665 -0.473486 0.246031 0.193874 0.112978 -0.015440 -0.423493 -0.646214 0.119755 0.086918 -0.125236 -0.390617 -0.166614 -0.007272 0.250047
anything -0.985995 0.188807 0.223996 -0.432726 -0.918591 -0.508362 -0.224159 -0.356565 -0.082872 -0.288611 -0.786024 -0.503943 -0.140718 0.095651 -0.408532 0.165634 -0.739422 -0.912838 -0.128576 0.238314 -0.176003 -0.496059 -0.138698 0.648626 -0.493368 0.141323 -0.306584 -0.007881 -0.310235 -0.334518 0.182248 -0.996548 0.150617 -0.283818 0.024179 0.194504 -0.668034 0.024822 -0.244206 0.092727 0.073449 -0.392252 -0.556216 0.154820 0.397256 0.148842 -0.189614 -0.138753 -0.097545 -0.126582
strange -0.587911 0.297620 0.476609 -0.124632 -0.547013 -0.627417 0.201199 -0.352990 0.179244 -0.145610 -0.330704 -0.420870 -0.215876 0.226599 -0.460250 0.282153 -0.190026 -0.156784 -0.447891 -0.264131 0.005982 -0.809796 -0.383942 0.478314 -0.021028 0.313228 -0.143629 -0.229270 -0.586984 0.114780 0.312371 -0.322598 0.113006 -0.119611 0.066437 -0.017143 -0.513135 0.137363 -0.037586 0.253766 -0.203181 -0.014273 -0.511019 0.090098 -0.012313 -0.048292 -0.283611 -0.401343 -0.037410 -0.345075
or -0.681173 0.252308 0.324498 -0.361065 -0.522295 -0.429096 0.056271 0.152450 0.126580 -0.220461 -0.301054 -0.529036 -0.393879 -0.101245 -0.337921 0.331165 -0.366089 -0.575334 -0.440352 -0.007490 -0.001567 -0.283412 -0.191376 0.342771 -0.486084 0.162081 -0.091282 -0.075398 -0.524630 -0.263509 0.212383 -0.640220 -0.037660 -0.131131 0.068740 0.162027 -0.440683 -0.004704 0.298160 0.145704 0.119202 -0.350514 -0.260784 0.278983 0.172465 0.122732 -0.439623 -0.105175 0.051372 0.053542
mysterious -0.134339 0.551681 0.237024 -0.463544 -0.423958 -0.328358 0.070474 0.039767 0.183274 -0.004406 -0.973628 0.069585 0.132234 0.341426 -0.369751 -0.124270 -0.041895 -0.372276 -0.480758 -0.382951 -0.313972 -0.401276 -0.284792 0.262583 -0.635009 -0.027761 -0.098290 0.208230 -0.486700 0.217015 0.515880 -0.327356 0.427239 0.216796 0.282607 0.038036 0.121418 -0.394082 -0.297510 0.402862 -0.181669 -0.391400 -0.061194 0.623670 0.044066 -0.180357 -0.347708 -0.484247 0.031189 0.304809
because -0.665593 0.112780 0.168044 -0.446937 -0.806528 -0.404021 0.133428 -0.206343 0.163191 -0.115353 -0.913886 -0.413560 -0.473572 0.115507 -0.439982 0.124582 -0.640225 -0.520743 -0.568009 -0.113397 -0.004170 -0.366815 -0.023994 0.310993 -0.219797 -0.022204 0.242897 0.024907 -0.519723 -0.271624 0.167565 -0.504136 0.210250 -0.040594 0.040262 0.045522 -0.496136 0.090772 0.047512 0.147701 -0.090240 -0.454968 -0.487267 0.204029 0.094369 -0.244193 -0.300565 -0.215519 0.010652 0.114852
just -0.728539 0.122237 0.082021 -0.174881 -0.779451 -0.368248 -0.075212 0.097043 0.137675 -0.083823 -0.818637 -0.639524 -0.449591 0.213968 -0.504413 0.078014 -0.442776 -0.905617 -0.457826 0.075193 0.142560 -0.424850 -0.128360 0.261302 -0.308779 0.097093 -0.075703 -0.095421 -0.340858 -0.296498 0.101977 -0.669275 0.368376 -0.131930 0.144704 0.169117 -0.789196 0.101499 0.033808 0.110189 -0.157697 -0.303514 -0.604228 0.045279 0.178873 -0.178429 -0.225301 -0.255233 0.068074 0.133164
didnt -1.120345 -0.042672 0.144542 -0.179822 -0.758258 -0.416248 -0.039903 -0.075830 0.077662 -0.454997 -0.781858 -0.420529 -0.508114 0.020985 -0.226316 0.160316 -0.843114 -0.845218 -0.083017 0.414345 0.013501 -0.469582 -0.112416 0.447339 -0.619448 0.028913 -0.081815 -0.118847 -0.843950 -0.116499 0.138176 -0.520357 0.214984 0.031826 -0.051272 0.261670 -0.605350 0.195057 -0.166285 0.031941 -0.170130 -0.422655 -0.535384 0.107348 0.308343 -0.208215 -0.410991 -0.081238 0.359712 0.131006
hold -0.204439 0.326839 0.419400 -0.033138 -0.273799 -0.741418 -0.229328 -0.349374 0.476032 0.139203 -0.394207 -0.257156 -0.487707 0.060939 -0.100446 0.040770 -0.597201 -0.788766 -0.110725 -0.101891 -0.298577 -0.346885 -0.298319 0.590389 -0.078848 0.359203 -0.215747 0.060231 -0.432293 -0.009042 0.233545 -0.271337 -0.142270 0.139625 -0.101805 0.243210 -0.323157 -0.120031 -0.005130 -0.195527 -0.375484 -0.205742 -0.661693 0.371262 0.151169 0.075848 -0.418732 -0.321446 0.138961 -0.008779
with -0.276709 0.070109 0.216297 -0.349844 -0.359110 -0.493324 0.050764 0.064078 0.141283 -0.025416 -0.477762 -0.538913 -0.484142 0.140320 -0.484514 0.316378 -0.420935 -0.212157 -0.373321 -0.119416 -0.011219 -0.546078 -0.385468 0.078764 -0.375080 0.205460 0.171804 -0.012606 -0.636165 0.076564 0.229934 -0.468592 -0.032795 -0.042087 0.167929 0.012557 -0.588488 0.148588 0.308587 0.247314 -0.101947 -0.314393 -0.515481 0.135518 0.074264 -0.075867 -0.322167 -0.291250 0.020693 0.214201
such -0.507736 0.266124 0.437910 -0.237862 -0.615084 -0.472773 0.234760 -0.320827 0.510046 -0.017586 -0.819498 -0.525926 -0.044727 -0.108997 -0.323630 0.023887 -0.368235 -0.381110 -0.556437 -0.140300 -0.191783 -0.152145 -0.445173 0.029729 -0.676092 0.298620 -0.191568 -0.046568 -0.520535 -0.020851 0.546140 -0.567987 0.243195 0.126154 -0.167712 0.023083 -0.243211 -0.254676 0.296925 -0.106518 -0.315370 -0.419620 -0.088765 0.448902 -0.064842 -0.258121 -0.115383 -0.006645 -0.098939 0.348104
nonsense -0.727818 0.132249 0.737447 -0.319313 -0.317141 -0.073790 0.372240 -0.502089 -0.148001 0.158819 -0.435057 -0.537331 0.178203 0.328912 0.202230 0.489323 -0.319679 -0.270361 -0.593093 -0.214063 0.251851 -0.614656 -0.489648 -0.025505 0.059001 0.608939 0.210494 -0.073016 -0.632569 -0.301908 0.009142 -0.100950 -0.355322 -0.169707 -0.158605 0.469320 -0.506512 -0.398700 0.441092 -0.286281 0.341259 -0.091588 0.109308 0.396822 0.127504 -0.021514 -0.610725 0.083903 -0.430363 0.444674
was -0.900296 0.043302 0.043978 -0.480279 -0.483302 -0.680437 0.063787 0.479100 0.118413 0.002441 -0.881862 -0.687456 -0.410222 -0.110033 -0.042046 0.109255 -0.431196 -0.811545 -0.596439 0.037452 -0.244458 -0.564245 -0.100834 0.126186 -0.218147 0.047307 0.386171 0.011551 -0.512719 0.068164 0.090078 -0.312162 0.241027 0.305740 0.007239 0.240484 -0.651367 0.140964 0.029218 0.187946 0.012163 -0.337677 -0.916254 0.052374 0.050380 -0.110800 -0.446450 -0.057405 -0.090607 0.282515
director -0.235803 0.228445 0.798903 -0.188395 -0.108063 -0.708592 0.266012 -0.033032 0.010796 0.274959 -0.744913 0.021618 -0.107999 0.026061 -0.426594 0.248190 -0.694433 -0.786106 -0.099693 0.229280 0.315309 -0.298104 -0.627105 0.123228 -0.126895 -0.106435 -0.286904 -0.177715 -0.205872 0.318927 -0.111315 -0.303079 0.031598 -0.324582 0.196818 0.142154 0.007024 0.150489 0.228735 -0.314207 0.296836 -0.201705 -0.576724 0.496812 -0.281099 0.179385 0.292363 0.292068 -0.497353 0.487771
a -0.441006 0.167284 0.155600 -0.277523 -0.389934 -0.485803 0.295226 0.006935 0.146989 0.230125 -0.652732 -0.480685 -0.712461 0.128480 -0.436538 0.129996 -0.159625 -0.511460 -0.074640 -0.215927 -0.061623 -0.563144 -0.292291 0.158341 -0.529299 0.218048 0.047767 -0.174181 -0.418100 0.016458 0.284735 -0.449811 0.324502 -0.161296 0.273060 -0.030608 -0.330336 0.149340 0.584147 0.077264 -0.074428 -0.536133 -0.290406 0.151209 0.055006 -0.146696 -0.426100 -0.308952 -0.130942 0.017283
firm -0.028656 0.522977 0.596180 -0.119510 -0.451130 -0.603921 0.036136 0.187148 -0.002161 -0.374994 -0.580027 -0.044907 -0.310306 -0.035546 -0.121633 0.274002 -0.244449 -0.578506 -0.442678 -0.584762 0.054522 -0.412915 -0.150356 -0.088832 -0.520671 0.356051 -0.132916 -0.421344 -0.127598 0.267344 0.446492 -0.590443 0.386147 -0.311302 0.004613 -0.149311 0.229520 -0.317133 0.277710 0.201137 -0.123583 -0.636369 -0.149357 0.493883 0.069123 0.338979 -0.080745 -0.167923 -0.075645 0.383466
called -0.610604 0.144369 0.244960 -0.197747 -0.383013 -0.146462 -0.088259 0.090319 0.355046 -0.151165 -0.765129 -0.546445 -0.174587 -0.091688 -0.218090 0.251195 -0.628520 -0.338931 -0.528427 0.098127 -0.172820 -0.675261 -0.282990 0.384635 -0.567019 0.188890 -0.119838 -0.049471 -0.486152 -0.101199 0.139260 -0.499145 -0.116915 -0.015536 -0.075272 0.026793 -0.308006 0.067805 -0.005710 0.216852 -0.246092 -0.086292 -0.486556 0.195474 0.062391 0.045656 -0.441146 -0.205114 -0.085339 0.359427
Grunnings 0.070632 0.836102 0.775358 -0.293878 -0.510216 -0.463280 0.013304 0.321218 0.054216 0.395658 -0.591730 0.242497 -0.508280 0.138633 0.022194 -0.119222 -0.057713 -0.384918 -0.320379 0.375016 -0.598085 -0.524919 0.233176 0.700017 -0.563944 -0.069675 -0.321843 -0.363602 0.097007 -0.176634 0.015680 -0.101352 -0.037156 -0.442353 -0.073330 0.173974 -0.314674 -0.055464 -0.187366 0.426807 -0.171392 -0.547120 -0.652706 0.426877 -0.042552 0.316886 0.101642 0.059473 0.300965 -0.284697
which -0.438202 0.408362 0.236169 -0.385098 -0.808075 -0.336477 0.047011 -0.068909 0.303792 0.196927 -0.614638 -0.310555 -0.348929 0.210313 -0.514638 0.237796 -0.345402 -0.454011 -0.252224 -0.177708 -0.298145 -0.494454 -0.344457 0.131394 -0.127351 -0.021161 0.022703 -0.183116 -0.469030 0.009247 0.209706 -0.545737 0.018614 -0.272323 0.181512 0.093068 -0.178039 0.139840 -0.048708 0.035540 -0.161575 -0.219506 -0.585784 0.148002 0.125281 -0.024865 -0.260015 -0.356404 -0.163379 0.261428
made -0.658342 0.091301 0.090894 -0.386860 -0.439950 -0.428242 -0.081638 -0.079216 0.303877 0.143173 -0.743603 -0.659893 -0.407127 0.165228 -0.226896 0.382872 -0.679588 -0.403644 -0.073905 -0.007709 -0.125190 -0.793568 -0.329406 0.373997 -0.451851 0.112222 0.002286 -0.142069 -0.476252 -0.262712 0.140525 -0.542271 -0.167685 -0.111266 -0.160006 -0.036940 -0.469071 0.401671 0.024456 0.139501 -0.246973 -0.274598 -0.487761 0.039953 0.133692 0.046792 -0.075451 -0.240655 -0.110362 0.141100
drills -0.562162 0.280555 0.160714 -0.059761 -0.490109 -0.223140 0.401450 -0.293572 0.629241 -0.349284 -0.358580 -0.070605 -0.481833 0.262747 -0.144401 0.419948 -0.500684 -0.284831 -0.282311 -0.346284 -0.506098 -0.330189 -0.331580 0.281893 -0.418572 0.431469 -0.472188 0.040008 -0.095988 -0.146670 0.585770 -0.581071 0.034758 0.298508 0.001606 -0.228029 -0.693528 0.286063 -0.218408 0.338839 -0.315891 0.046153 -0.457457 0.086534 0.007769 -0.345243 0.233081 -0.091960 -0.154230 0.035377
He -0.614065 0.131397 0.043350 -0.302015 -0.640018 -0.375351 0.308482 -0.142421 0.135462 0.108204 -0.719924 -0.392713 -0.494414 0.549028 -0.505134 0.147715 -0.678984 -0.435130 -0.212011 -0.041246 0.038853 -0.679805 -0.505095 0.089545 0.037019 0.105694 -0.027752 0.106142 -0.342001 0.077157 0.083759 -0.564027 0.119103 -0.218180 0.443636 -0.066279 -0.625561 -0.018401 -0.232594 0.070498 -0.075709 -0.543538 -0.698387 0.099779 0.215482 0.091490 -0.081156 -0.606755 0.067010 0.171850
big -0.480711 0.193225 0.400399 -0.049877 -0.379780 -0.644886 0.223538 -0.147372 0.400090 0.263451 -0.626793 -0.450000 -0.112300 0.001001 -0.356056 -0.019462 -0.403001 -0.191083 -0.068846 -0.011141 -0.008219 -0.565124 -0.367684 0.323276 -0.022246 0.459102 -0.078778 0.031910 -0.560371 -0.183456 -0.015152 -0.522846 0.094226 -0.109608 0.187029 -0.153410 -0.654281 0.065313 -0.017584 -0.298357 -0.328454 -0.584402 -0.898121 0.315067 0.033779 -0.026249 -0.113803 -0.328780 -0.239714 0.271022
beefy -0.159487 0.318224 0.148858 0.321033 -0.587649 -0.254996 -0.205557 0.319287 0.517674 0.379844 -0.143189 -0.656345 -0.212793 0.217961 -0.117680 0.038757 -0.333908 -0.694818 -0.114782 -0.122474 -0.108476 -0.509035 -0.308636 0.394763 -0.187269 0.661529 -0.152631 0.050763 -0.153862 -0.120184 0.165627 0.132743 0.286322 -0.405322 -0.072848 -0.368421 -0.237509 -0.017569 0.573797 -0.417869 0.100151 0.016786 -0.446947 0.097036 -0.157486 -0.444958 0.268597 -0.206796 0.107984 0.387016
man -0.632969 0.324051 0.474469 -0.344633 -0.307575 -0.676546 0.061693 0.222479 0.559397 -0.033698 -0.612833 -0.217225 -0.313318 -0.188252 -0.470447 0.312717 -0.555598 -0.519646 -0.247536 -0.548259 -0.225424 -0.505023 -0.143816 0.071942 -0.411618 -0.008804 0.038944 0.068730 -0.390269 0.006695 0.308037 -0.458950 -0.222777 -0.016611 0.009157 0.031604 -0.297417 -0.016444 -0.046993 0.227354 -0.029946 -0.267052 -0.382061 0.225221 -0.110160 -0.077610 -0.205817 -0.517569 -0.479261 0.195029
hardly -0.600568 0.355173 0.410002 -0.379754 -0.528717 -0.781547 -0.079244 -0.403366 0.086999 0.068950 -0.706303 -0.457826 -0.606311 0.175465 -0.579558 0.009574 -0.630457 -0.799188 -0.301454 -0.428710 0.034575 -0.460993 -0.238406 0.636849 -0.001642 0.014783 -0.206588 0.011228 -0.148469 -0.419137 0.309826 -0.410316 -0.200238 -0.303176 0.065072 0.048294 -0.258718 0.117733 -0.075815 -0.160339 0.165241 -0.131415 -0.176395 0.316022 0.359435 0.095689 -0.197465 0.063805 0.230085 0.129802
any -0.509785 0.225578 0.295121 -0.267974 -0.448218 -0.572651 0.051394 -0.285627 0.126358 -0.186125 -0.481097 -0.241382 -0.368468 0.050160 -0.610586 0.050707 -0.640241 -0.804225 -0.442530 -0.102848 -0.206224 -0.469699 -0.110737 0.297864 -0.637417 0.138997 -0.094158 -0.199836 -0.346451 -0.251945 0.244526 -0.433005 0.067403 -0.185838 0.192676 -0.165985 -0.574135 0.115306 0.162588 0.250417 -0.212371 -0.926017 -0.436824 0.145861 0.377293 0.207120 -0.142556 -0.237951 -0.108109 0.050129
neck -0.511786 0.209943 0.214411 -0.013710 -0.479370 -0.180283 -0.326695 -0.287251 0.473605 -0.304896 -0.963384 -0.294748 -0.201660 0.363585 -0.510131 0.518671 -0.086091 -0.268896 -0.578646 -0.424253 -0.100289 -0.855128 -0.248109 0.001374 -0.485056 0.425927 0.007411 0.057153 -0.736781 -0.268677 0.296914 -0.091632 -0.452031 0.159122 0.307219 0.024399 -0.164134 0.311849 0.114861 -0.082152 -0.189908 -0.616896 -0.169888 0.361282 -0.125550 0.025557 -0.233101 0.071814 -0.025691 0.302808
although -0.727710 0.572450 0.234659 0.140166 -0.388703 -0.379119 -0.273419 -0.383683 0.235358 -0.167065 -0.627519 -0.249148 -0.290063 -0.046942 -0.513320 0.172406 -0.332057 -0.840416 0.016806 0.013974 -0.352633 -0.326523 -0.335196 0.466445 -0.014727 0.323987 -0.398806 -0.544265 -0.552758 -0.279070 0.237835 -0.086529 -0.192992 0.151283 -0.130280 0.382456 0.024097 0.211991 0.104037 0.281075 0.228945 -0.121151 -0.652303 0.195147 0.450212 -0.082852 -0.081864 0.097997 -0.077783 0.303233
he -0.999210 0.160378 0.040168 -0.325232 -0.859910 -0.488486 0.075557 0.036059 0.025965 -0.007004 -0.491575 -0.282241 -0.509586 0.322316 -0.515624 0.050716 -0.462293 -0.813489 -0.456005 0.062760 0.119690 -0.418004 -0.464064 0.339111 -0.163128 0.042660 -0.051686 0.110259 -0.602102 -0.057306 0.047934 -0.618471 0.256635 -0.011763 0.173396 0.301437 -0.512110 0.053022 -0.094951 0.069200 -0.021825 -0.358975 -0.376140 0.161029 0.356666 -0.164685 -0.427510 -0.364629 0.042243 0.043533
did -0.643537 0.056641 0.258690 -0.196048 -0.584694 -0.328639 -0.209632 -0.075481 -0.032047 -0.190935 -0.687104 -0.724471 -0.575325 0.025149 -0.366642 0.101592 -0.592602 -0.806123 -0.469361 0.020234 0.218965 -0.303941 -0.271535 0.389662 -0.362298 0.046978 0.153981 -0.023735 -0.797340 -0.112641 0.115687 -0.771722 -0.052959 0.015859 -0.209345 0.126782 -0.599091 0.241646 0.002431 -0.076166 0.253124 -0.323888 -0.555856 0.232425 0.305937 -0.174393 -0.721163 0.074406 0.147374 0.225554
have -0.650214 0.169983 0.168460 0.011703 -0.523368 -0.216429 0.132651 -0.400418 0.057919 -0.266711 -0.584970 -0.947418 -0.410870 0.175839 -0.361766 0.000776 -0.833222 -0.917587 -0.337755 -0.139505 0.215017 -0.421790 -0.285735 0.188028 -0.524114 0.058285 0.324225 -0.360935 -0.639239 -0.338630 0.154147 -0.742234 0.436428 -0.553126 -0.083472 0.218945 -0.753991 0.158945 0.263175 -0.020920 0.224469 -0.275796 -0.514421 0.294250 0.391567 0.088203 -0.424894 0.365018 0.028823 -0.025313
large -0.531355 0.358854 0.455482 -0.091329 -0.394645 -0.276351 0.085564 -0.044010 0.464744 0.197414 -0.478887 -0.679840 -0.421755 -0.116177 -0.432593 0.394374 -0.378270 -0.121833 -0.088114 -0.256867 -0.197364 -0.628248 -0.284417 -0.093717 -0.613771 0.396050 0.236723 -0.334252 -0.146278 -0.197221 0.530437 -0.347967 -0.016865 -0.184839 0.135633 -0.231131 -0.503491 0.197135 0.556522 -0.059149 -0.266726 -0.423069 -0.621493 0.130368 -0.077656 -0.378783 0.025570 -0.295174 -0.108054 0.049896
mustache -0.252722 0.537237 0.393231 -0.279437 -0.178926 -0.650162 -0.367697 -0.099027 0.299066 0.316180 -0.340541 -0.279096 -0.260789 0.348820 -0.100269 0.342867 -0.186154 -0.221169 0.043660 0.136597 -0.527313 -0.500726 -0.188632 -0.015263 -0.024849 0.086792 0.409042 -0.244820 -0.514947 0.026096 0.233785 -0.231730 0.022294 0.013161 0.262510 -0.416606 -0.706602 0.066680 0.370993 0.384868 -0.426752 -0.172167 -0.816793 0.514256 0.015560 -0.199733 -0.487492 -0.068618 -0.112172 0.092721
thin -0.265026 0.420575 0.535502 -0.257281 -0.890473 -0.280657 0.557997 0.044459 0.829354 -0.190225 -0.257784 -0.344996 -0.243448 0.246609 -0.207278 0.475998 -0.014527 -0.144552 -0.684679 -0.450896 -0.569246 -0.189578 -0.364706 0.205267 -0.575883 -0.157519 -0.361951 -0.291205 -0.605764 -0.099511 0.430912 -0.141643 -0.342856 -0.199054 0.205603 -0.001176 -0.578120 -0.250249 -0.020115 -0.208882 -0.466357 -0.462981 -0.177372 0.290504 0.272341 -0.437200 -0.006741 -0.225989 0.201960 0.222618
blonde -0.444830 0.225297 0.597454 0.314871 -0.098430 -0.318730 0.353939 -0.170025 0.015834 -0.086627 -0.472124 -0.418989 -0.100577 0.330103 -0.383294 0.323966 -0.309599 -0.289020 -0.347179 -0.520419 -0.197701 0.138347 -0.270977 0.212177 -0.339429 0.283488 -0.142542 -0.243682 -0.666972 0.136936 0.278444 -0.283744 0.112904 -0.371294 0.407853 0.318749 -0.632466 0.357700 -0.214039 0.053902 0.351332 0.127915 -0.462768 0.291665 0.374655 -0.325224 -0.163677 -0.220833 0.105960 -0.114635
had -0.759734 0.059544 0.101165 -0.458837 -0.395720 -0.737975 0.107666 0.079676 0.049074 -0.220970 -0.464875 -0.727684 -0.145586 0.174493 -0.306569 0.106234 -0.681369 -0.798426 -0.287931 0.224794 -0.188012 -0.630901 -0.341598 0.213695 -0.214215 0.160177 0.151474 0.074646 -0.577737 -0.117146 0.113543 -0.492238 0.329474 -0.026748 0.050665 0.220390 -0.605376 0.263820 -0.198257 -0.054902 0.190285 -0.451010 -0.936173 0.028855 0.128147 0.039706 -0.384811 -0.147577 0.226917 0.163208
nearly -0.461411 0.192814 0.314276 -0.444996 -0.657149 -0.380202 0.235926 0.057997 0.323951 0.091711 -0.643654 -0.526482 -0.208694 0.216893 -0.454394 0.059349 -0.329139 -0.212891 -0.234432 0.007546 -0.244274 -0.827621 -0.447774 0.239084 -0.122534 0.193272 0.210786 0.164721 -0.463575 0.076803 0.079431 -0.786548 -0.092533 0.052855 -0.043182 -0.065909 -0.558920 0.156326 -0.204355 0.029240 -0.231764 -0.135476 -0.843691 -0.057586 0.239696 0.162641 -0.476187 0.053648 -0.138440 -0.113891
twice -0.551247 0.598300 0.333460 -0.629643 -0.385742 -0.527441 -0.082654 -0.236685 0.519655 -0.094865 -0.365760 -0.481487 -0.670493 -0.032450 -0.031892 0.270553 -0.317513 -0.421076 -0.642273 0.020474 -0.082338 -0.864041 -0.423790 0.506105 -0.132888 -0.086197 0.191469 -0.232380 -0.283245 -0.045696 -0.069506 -0.143689 0.244999 0.267115 -0.235353 0.372554 -0.331976 0.005705 0.030595 -0.167407 -0.486589 -0.426023 -0.478181 0.444529 0.021827 0.232670 -0.179286 0.025060 -0.176738 -0.303195
usual -0.898225 0.594762 0.311634 -0.423903 -0.499756 -0.653577 -0.083840 0.040528 0.402155 -0.224702 -0.663333 -0.303632 -0.369313 0.248127 -0.499765 0.278952 -0.059829 -0.139058 -0.618745 0.174321 -0.318580 -0.296086 -0.134985 0.367719 -0.510217 -0.066381 0.069310 0.279950 -0.154678 -0.055865 0.086589 -0.534113 -0.246729 -0.020648 0.307270 -0.042924 -0.393690 -0.117546 -0.072172 -0.195446 -0.179872 -0.175046 -0.768584 0.159541 0.236774 0.143619 0.023715 -0.085999 -0.074823 0.229091
amount 0.106495 0.458184 -0.089299 0.005596 0.176760 -0.466059 -0.321886 -0.087249 0.326454 -0.184439 -0.121756 -0.203495 0.078385 0.034570 0.265742 0.166349 0.053289 -0.448343 -0.418022 -0.313160 -0.679815 -0.201538 -0.478357 0.171444 -0.428205 0.343134 -0.354048 -0.019939 -0.650494 0.161330 0.300792 -0.309232 0.399344 0.125366 0.257029 0.187811 -0.542204 0.118287 0.104977 0.471497 0.000106 -0.663073 -0.648004 0.556480 -0.205916 0.431896 -0.378498 -0.295381 -0.229797 0.375253
came -0.603947 0.101236 0.241994 -0.026255 -0.531973 -0.526744 0.180664 0.066657 0.258157 0.009761 -0.675564 -0.349733 -0.393797 -0.045855 -0.668358 0.284388 -0.657726 -0.677096 -0.192206 -0.257506 -0.123560 -0.534804 -0.482020 0.037185 -0.398695 -0.000750 0.040373 -0.075137 -0.415690 0.215233 0.035870 -0.460141 -0.172008 -0.022515 0.159010 -0.141119 -0.346711 0.105722 0.327891 0.260448 -0.096375 -0.372822 -0.541404 0.105404 0.112165 0.162723 -0.139434 -0.386805 0.031596 0.330333
useful -0.816682 0.654848 0.799901 0.041888 -0.733377 -0.300724 -0.030661 0.336453 0.298506 0.087269 -0.694544 -0.440409 -0.328591 -0.186961 -0.408263 -0.150052 0.094912 -0.320345 -0.087912 -0.026795 -0.493036 -0.144262 0.059296 0.477165 -0.159508 -0.196449 -0.359931 -0.194098 -0.122212 0.119303 0.221149 -0.219337 0.432254 -0.158347 -0.421407 0.169544 -0.629546 -0.129873 -0.044209 0.001169 -0.498166 0.014994 -0.731439 0.109155 -0.046813 0.363993 -0.312213 0.055897 0.018933 0.374569
as -1.125141 0.185354 0.117997 -0.133970 -1.090236 -0.673672 -0.172629 0.796050 0.134604 -0.520549 -0.877255 -0.512860 -0.666948 0.844996 -0.718643 0.195267 -0.175336 -0.379875 -0.728535 0.136891 0.412482 -0.568161 -0.518233 0.206292 -0.085023 0.250076 -0.280537 0.676522 -0.139323 -0.359225 -0.046032 -0.128019 0.268045 0.663152 0.554462 0.904270 -0.540273 -0.278568 -0.102490 -0.345802 -0.362759 -0.827140 -0.565119 -0.056776 0.313547 -0.437386 -0.956798 -0.778002 -0.278162 -0.035178
she -0.808761 0.105307 0.067545 -0.435333 -0.763686 -0.571476 0.301761 -0.178035 0.114605 0.229304 -0.519726 -0.256984 -0.536936 0.161161 -0.498006 0.141365 -0.548626 -0.784968 -0.202053 0.004611 -0.030661 -0.399270 -0.217638 0.385350 -0.164555 0.107476 0.140516 0.092111 -0.454999 -0.079596 0.163041 -0.687711 0.305692 -0.352358 0.045207 -0.274933 -0.432430 -0.015960 -0.139626 0.334535 -0.040251 -0.309553 -0.317889 0.165724 0.354315 -0.112283 -0.338222 -0.222894 0.044193 0.101335
spent -0.679467 0.021108 0.323455 -0.452845 -0.348962 -0.538753 0.268551 -0.304729 0.485383 0.086642 -0.443508 -0.528845 -0.130788 -0.275896 -0.316411 0.461529 -0.206568 -0.657589 -0.127836 -0.040272 -0.411532 -0.587188 -0.138215 0.261856 -0.406997 0.430507 -0.372197 -0.267443 -0.451998 0.276786 0.510302 -0.183711 -0.132930 0.293233 -0.311669 0.151522 -0.515729 0.208294 0.081820 -0.255451 0.134352 -0.218512 -0.416645 0.078290 0.325222 -0.253770 -0.099849 -0.347547 -0.178628 -0.158537
so -0.927360 0.156419 0.073986 -0.420842 -0.586768 -0.395798 0.245382 -0.452631 0.098811 -0.107012 -0.678254 -0.564967 -0.170486 0.121312 -0.376840 0.151372 -0.693932 -0.739202 -0.308166 -0.077954 -0.328833 -0.554360 -0.100274 0.365929 -0.189445 0.122850 0.038331 -0.215170 -0.738411 -0.221209 0.168872 -0.570535 0.296322 -0.168778 -0.008986 0.263780 -0.389731 0.074507 -0.049853 0.406874 -0.014090 -0.242730 -0.602707 0.180946 0.157096 -0.019572 -0.416750 -0.093338 0.000647 -0.079787
her -0.411416 0.048073 0.243530 0.022336 -0.334988 -0.356218 0.030374 -0.358095 0.097510 0.052378 -0.775107 -0.378028 -0.521475 0.246453 -0.362521 0.084576 -0.516018 -0.660078 -0.159170 0.017481 -0.482929 -0.827084 -0.342457 0.078972 -0.502279 0.283193 0.281832 -0.212087 -0.547366 0.278625 0.161693 -0.452537 -0.023479 0.014732 0.114691 -0.036979 -0.130096 -0.016839 0.161197 0.225512 -0.067274 -0.258036 -0.653962 0.099098 0.169915 0.296316 -0.418932 -0.576576 0.016204 0.511336
time -0.459181 0.014175 0.314607 -0.228343 -0.667285 -0.586668 0.004232 -0.109441 0.129882 0.363882 -0.687942 -0.574021 -0.642194 0.206681 -0.337022 0.114881 -0.679204 -0.676693 -0.230962 0.040982 -0.517971 -0.469058 -0.174771 0.044069 -0.487655 0.030388 0.044516 -0.295277 -0.705455 -0.057237 0.253076 -0.598163 -0.101225 0.074864 -0.053187 -0.021929 -0.524939 0.315477 0.099949 0.129441 -0.061400 -0.593523 -0.434308 0.116224 0.126147 0.002500 -0.460489 0.067308 -0.201687 0.226680
craning -0.424676 0.211104 0.455337 -0.171027 -0.416002 -0.553111 0.268430 -0.179276 0.333329 -0.488191 -0.514517 -0.342745 -0.158040 -0.230502 -0.314548 0.388321 -0.486668 -0.296796 -0.562300 -0.530689 -0.589856 -0.700994 0.213468 0.480125 0.038280 0.358148 -0.446973 0.289566 0.124194 0.312432 0.333965 -0.403733 -0.407803 -0.016268 0.210885 -0.116488 -0.655296 -0.028754 -0.182784 0.292892 -0.137665 -0.300431 -0.024631 0.073513 -0.110501 0.467545 0.324488 0.079206 -0.130237 0.264206
over -0.406519 0.040662 0.044059 -0.153052 -0.506467 -0.487126 0.088617 0.191730 0.238730 0.026158 -0.516728 -0.556115 -0.697873 0.330929 -0.527869 0.259735 -0.663628 -0.216336 -0.188054 -0.108897 -0.422638 -0.732687 -0.349325 0.002414 -0.183307 0.189906 0.188023 -0.002043 -0.713374 0.280571 0.022883 -0.373362 -0.289691 -0.176812 0.353477 -0.113453 -0.533414 0.160431 -0.099301 0.452252 0.081493 -0.287844 -0.838469 0.063009 0.040798 0.197838 -0.362241 -0.339398 -0.006844 0.420346
garden -0.274576 0.287578 0.388478 -0.449176 -0.054227 -0.198042 0.023385 0.380313 0.209170 0.043460 -0.660507 -0.467001 -0.395489 0.113229 -0.461863 -0.021268 -0.453173 -0.678066 0.065847 0.208781 -0.655919 -0.449674 -0.198651 0.016307 -0.376772 0.472807 -0.153775 -0.259472 -0.522053 0.086100 0.217803 -0.256926 0.089980 0.442744 0.334207 0.420132 -0.207215 0.442842 -0.086609 0.249287 -0.116710 -0.687810 -0.019845 0.230914 -0.058505 -0.036278 -0.502479 0.122838 -0.089655 0.273038
fences 0.043362 0.005134 0.102609 0.007255 0.130256 -0.509258 -0.201050 -0.162364 0.408012 -0.457025 -0.453569 -0.219598 0.204426 0.185022 0.088286 0.288886 -0.393401 -0.470943 -0.320042 0.127887 -0.339450 -0.395834 -0.190019 -0.009552 -0.189498 0.437905 0.122518 0.054844 -0.157362 -0.154968 0.570763 -0.293101 0.404995 -0.127408 -0.143231 0.367348 -0.414684 -0.027986 -0.120082 0.599994 -0.347084 -0.276640 0.114453 0.536351 0.263860 -0.017950 -0.418711 -0.370667 0.212869 0.295716
spying -0.723941 0.512363 0.606439 0.010205 -0.701907 0.021459 -0.345656 -0.078192 0.152936 0.346769 0.026620 0.015222 0.210061 0.047673 0.077748 0.427521 -0.289456 -0.577830 -0.078280 0.239493 0.055791 -0.579161 -0.632756 0.400119 -0.421536 -0.154536 0.158459 -0.026688 -0.519331 -0.492056 0.429644 -0.794711 -0.512257 -0.325472 -0.181675 -0.241767 -0.126456 0.485363 -0.315897 -0.223427 0.306538 -0.538374 -0.461893 0.501640 0.292561 0.270663 -0.090250 -0.103761 -0.053541 0.111655
on -0.243139 0.036365 0.081438 -0.285475 -0.465237 -0.282860 0.143502 0.143845 0.194821 0.003861 -0.482539 -0.677942 -0.514006 0.205421 -0.646526 0.252590 -0.630733 -0.073944 -0.224144 -0.171113 -0.122223 -0.788224 -0.367402 0.037057 -0.223851 0.120122 0.114260 -0.051233 -0.575444 0.388121 0.097515 -0.718067 -0.096470 -0.239441 0.218259 -0.167995 -0.468502 0.201600 0.230925 0.359623 0.049336 -0.318163 -0.846646 0.173445 0.085499 0.005274 -0.338577 -0.285311 0.036295 0.278903
neighbors -0.002628 0.482243 0.142406 0.085436 -0.855201 -0.644196 -0.443069 -0.256509 0.580616 0.158755 -0.425185 -0.119028 -0.068287 -0.040851 -0.253942 0.300242 -0.449762 -0.537281 -0.307392 0.195724 -0.436650 -0.062801 -0.695365 0.441192 -0.669352 -0.063513 0.090060 0.161771 -0.577577 0.133072 0.248572 0.019161 0.283603 -0.143155 0.186189 -0.451771 -0.596133 0.332609 -0.345785 -0.350751 -0.162933 -0.298520 -0.213287 0.476331 -0.127771 -0.242773 -0.198900 0.018275 0.006195 0.133533
The -0.300426 0.105289 0.111741 -0.244598 -0.317402 -0.736979 0.605787 -0.151782 0.162656 0.155021 -0.292768 -0.610548 -0.614921 0.015637 -0.246232 0.178357 -0.278974 -0.453581 -0.395424 -0.419422 -0.312664 -0.366457 -0.285326 0.185414 -0.328937 0.269955 0.211695 -0.170689 -0.256026 0.003459 0.164671 -0.603480 0.177989 -0.201495 0.068991 0.032884 -0.319042 0.164220 0.243848 0.201110 -0.162304 -0.602942 -0.335009 0.262613 0.018983 -0.130333 -0.366441 -0.760040 0.100962 0.429805
Dursleys -0.588369 0.309168 0.254374 -0.391923 -0.348252 -0.497142 0.154278 -0.210822 0.339205 -0.222267 -0.881473 -0.616746 -0.483331 0.127873 -0.260659 0.282777 -0.119767 -0.450500 -0.237609 -0.066388 -0.414133 -0.834358 -0.538785 0.178216 -0.228908 0.017325 -0.116769 -0.432911 -0.347218 0.298049 0.394931 -0.476314 -0.136363 0.147822 -0.116028 -0.186113 -0.449833 0.089459 -0.200450 -0.113074 0.073413 -0.432770 -0.559739 0.110760 0.046582 -0.106427 -0.298641 -0.224360 -0.316049 0.377400
small -0.579554 0.216850 0.540600 -0.304785 -0.646156 -0.425940 0.283739 0.248277 0.203561 -0.010260 -0.673959 -0.415805 -0.240318 -0.140902 -0.694530 0.019906 -0.162699 -0.391950 -0.061840 0.005663 -0.145907 -0.397687 -0.014261 -0.041597 -0.687146 0.225578 -0.315069 -0.006384 -0.755026 -0.251127 0.661393 -0.569275 -0.182482 -0.294605 0.399496 -0.398733 -0.505775 0.434484 0.711227 -0.037731 -0.021751 -0.042367 -0.294647 0.029279 0.183704 -0.292063 -0.009786 -0.342306 0.200380 -0.055407
son -0.163651 0.458698 0.443933 -0.190925 -0.400145 -0.203484 -0.229547 -0.580736 0.584860 -0.175280 -0.478371 -0.490683 -0.099107 0.236190 -0.587514 0.003658 0.066243 -0.868166 -0.624776 -0.135330 -0.433808 -0.309263 -0.238217 0.361431 -0.204050 0.541973 0.146107 -0.051673 -0.608922 -0.441865 0.081035 -0.797825 -0.275876 0.277221 0.199426 -0.507560 -0.354490 -0.046335 0.066701 -0.232348 0.007256 -0.364696 -0.076171 0.644069 0.062831 -0.269847 -0.026605 -0.111878 0.157055 0.059491
Dudley -0.657491 0.203192 0.159993 -0.222219 -0.361861 -0.674194 0.121765 -0.145418 0.325646 0.245571 -0.780795 -0.424668 -0.422550 0.137286 -0.571162 -0.007605 -0.511953 -0.813973 0.087797 -0.022514 -0.275265 -0.562313 -0.444256 0.257100 -0.409189 0.053425 -0.126852 0.102652 -0.517647 -0.047049 0.264716 -0.454495 0.205816 -0.061870 0.113693 -0.085116 -0.400804 0.236232 -0.177917 0.015531 0.145889 -0.449714 -0.398403 0.114566 0.107450 0.064467 -0.017734 -0.259958 -0.082133 0.171659
their -0.282262 0.177071 0.121672 -0.246803 -0.403277 -0.520974 0.190011 0.003958 0.093372 0.119294 -0.532007 -0.522218 -0.576417 0.314638 -0.294391 0.042125 -0.498874 -0.447532 0.023724 -0.118164 -0.440031 -0.851320 -0.555591 0.130723 -0.341135 0.244987 0.136559 -0.004738 -0.178344 0.075195 0.161726 -0.503661 -0.023490 -0.058412 0.051947 -0.042778 -0.313735 0.051083 0.479342 0.245993 -0.061336 -0.401867 -0.524793 0.213573 0.212751 0.315560 -0.081956 -0.629271 0.039940 0.526195
opinion -0.245864 0.418784 0.436732 -0.676817 -0.588220 -0.249434 -0.297372 0.139596 0.437851 -0.359355 -0.083218 -0.422052 -0.715815 -0.231899 0.042663 -0.139694 -0.214394 -0.821856 -0.256690 -0.059357 -0.016556 -0.460544 -0.093654 0.058763 -0.270652 0.304496 0.164995 -0.180619 -0.406437 0.086198 0.355373 0.001047 0.155046 -0.233649 0.253384 -0.448777 -0.084625 -0.180017 0.073141 0.294634 -0.088691 -0.542751 -0.462480 0.532222 0.047522 0.224000 -0.598433 0.290064 -0.097833 0.229122
there -0.678230 0.171629 0.143745 -0.399696 -0.766727 -0.421556 0.152975 -0.125609 0.105745 0.372006 -0.870432 -0.582438 -0.331115 0.117564 -0.555428 0.089411 -0.362567 -0.687789 -0.431823 -0.238527 -0.094788 -0.441998 -0.079739 0.202737 -0.151837 0.028425 0.099370 -0.411902 -0.804385 -0.388320 0.189601 -0.661332 0.306827 -0.212458 -0.084680 -0.176075 -0.698289 0.106515 0.193956 0.239104 0.051385 -0.181849 -0.559146 0.175672 -0.011434 -0.179945 -0.457256 -0.177882 -0.096217 0.092758
no -0.846548 0.141142 0.011405 -0.264798 -0.715535 -0.759770 -0.056706 -0.086618 0.176163 0.116295 -0.570368 -0.626915 -0.020218 0.029243 -0.512379 -0.058327 -0.523498 -0.650719 -0.464272 0.013723 -0.499851 -0.286903 -0.001848 0.395659 -0.288666 0.141992 0.242100 -0.412712 -0.799971 -0.262230 0.152218 -0.613190 0.279169 -0.158868 -0.038120 0.171807 -0.638137 0.271381 0.275733 0.410443 -0.037507 -0.165199 -0.420897 0.239070 -0.101325 -0.025365 -0.269518 -0.317455 -0.173330 0.091948
finer -0.050895 0.603036 0.597157 -0.274504 -0.575495 -0.844572 -0.210528 0.368201 0.182725 0.323571 -0.653415 -0.762645 -0.377236 0.250385 0.210438 -0.113350 -0.659889 -0.023496 -0.511009 -0.094285 0.108645 -0.175687 -0.477690 0.383463 -0.322787 0.394198 -0.287048 -0.372386 -0.546694 0.009084 0.465731 -0.271628 0.063196 0.014395 -0.328781 -0.286210 -0.364871 0.126686 -0.413737 -0.007455 -0.377465 -0.589668 -0.018014 -0.209428 0.391026 -0.159437 -0.283111 0.448100 0.324569 -0.003496
boy -0.500564 0.244394 0.336543 -0.436826 -0.620410 -0.371199 -0.058240 -0.111313 0.254350 0.089089 -0.627128 -0.745917 -0.374688 0.161308 -0.413154 0.241054 -0.433756 -0.537463 0.035014 0.032723 -0.160456 -0.636066 -0.214065 0.024831 -0.466017 -0.028192 0.153613 -0.091516 -0.329866 -0.075066 0.103265 -0.471162 -0.235219 0.179943 0.266524 0.106527 -0.422192 0.186953 -0.067100 0.208413 -0.041227 -0.305795 -0.558944 0.145738 0.026841 0.000658 -0.284151 -0.070999 -0.322582 0.469752
anywhere 0.029130 0.178253 0.021693 -0.211669 -0.476933 -0.750545 0.099914 -0.135314 0.466453 -0.403747 -0.106961 -0.349261 -0.120730 -0.260199 0.048601 0.254920 -0.451899 -0.849872 -0.585398 -0.368274 0.120545 -0.628755 -0.140407 0.334299 -0.242704 -0.251676 -0.220956 -0.458564 -0.601784 0.190582 0.300653 -0.472054 0.349384 0.324611 -0.395297 0.448866 -0.797140 0.226877 0.562406 0.083905 -0.245377 -0.135842 -0.050682 0.552819 0.409977 -0.044242 -0.587297 0.273999 -0.345255 0.360784
everything -0.670180 0.215900 0.369143 -0.028520 -0.754716 -0.247333 -0.127742 -0.160875 0.097093 0.126522 -0.838666 -0.398113 -0.515140 -0.024228 -0.455581 0.172172 -0.593848 -0.733656 -0.507701 0.074482 -0.260508 -0.589664 -0.111001 0.193719 -0.429391 0.085198 0.145925 -0.303392 -0.318192 0.209142 0.189401 -0.318986 0.172354 -0.310778 -0.244716 -0.197291 -0.696966 0.123528 -0.060261 -0.120216 -0.351430 -0.225876 -0.449393 0.387324 0.161133 0.101422 -0.458575 0.119334 0.207862 0.114011
wanted -0.743708 -0.114192 0.331068 -0.001016 -0.743688 -0.295817 0.103173 -0.269122 0.015154 -0.233569 -0.860397 -0.844077 -0.205655 -0.061520 -0.254014 0.067351 -0.628962 -0.689667 -0.557251 0.313972 -0.314525 -0.422700 -0.212508 0.515812 -0.191574 -0.170022 -0.230164 -0.188119 -0.488829 -0.139516 0.435204 -0.753776 0.079350 -0.129022 -0.153123 0.155178 -0.685805 0.019299 0.194560 0.040819 -0.168482 -0.478353 -0.598417 0.356083 0.402970 0.161765 -0.480848 -0.059602 -0.052195 -0.024381
but -0.650994 0.109813 0.134862 -0.285553 -0.884876 -0.451710 -0.012279 -0.121725 0.107618 -0.001273 -0.519783 -0.393082 -0.335669 0.186210 -0.384863 0.243618 -0.625835 -0.746362 -0.601033 -0.057920 0.153048 -0.435692 -0.090349 0.228665 -0.385448 0.115823 0.038074 0.112180 -0.508560 -0.166949 0.143697 -0.682421 0.198526 -0.057189 0.003919 -0.118117 -0.637402 0.151664 0.094312 0.216302 0.033592 -0.371844 -0.462665 0.146678 0.158495 -0.167564 -0.270842 -0.127109 0.160866 0.222785
also -0.576517 0.502690 0.554623 -0.296001 -0.667040 -0.286969 -0.185641 -0.025087 0.506541 -0.277296 -0.521851 -0.065796 -0.643864 -0.264484 0.014275 0.158071 -0.136114 -0.081854 -0.512885 -0.217736 -0.496726 -0.294380 0.016353 0.331890 -0.057512 -0.044293 -0.178779 -0.261403 -0.180053 0.054431 0.498850 -0.802696 0.088720 -0.192635 -0.141958 -0.064704 -0.223829 0.035965 -0.239135 0.192667 0.131511 -0.585392 -0.563017 0.541489 -0.008439 0.003124 -0.217897 -0.512365 -0.120864 0.179065
secret -0.199809 0.548007 0.345859 -0.096380 -0.819141 -0.713825 0.200666 0.331447 0.362557 -0.200088 -0.674799 -0.661233 -0.214993 0.134987 -0.024429 -0.030836 -0.495224 -0.432912 -0.079878 -0.420048 -0.319569 -0.298286 -0.272849 0.063295 -0.579850 -0.265536 0.220291 -0.217321 -0.532907 0.188036 0.445409 -0.251893 -0.122733 0.175176 -0.070965 -0.012881 -0.811373 -0.070328 -0.035175 0.308223 0.034109 -0.160829 0.024856 0.056330 0.495333 -0.238811 -0.419658 -0.299151 -0.067623 0.147270
greatest -0.327258 0.502085 -0.001288 0.116874 -0.679109 -0.565921 0.328766 0.425529 -0.049311 0.010969 -0.356788 -0.098563 -0.734445 -0.317035 -0.701559 0.443036 -0.432179 -0.007904 -0.206196 -0.385805 -0.475556 -0.080521 -0.249253 0.282757 -0.478919 0.141063 0.466781 0.003217 -0.581353 -0.200434 0.606992 -0.281671 -0.121030 -0.086045 0.195667 0.299577 -0.393162 0.489945 -0.215960 -0.156507 0.159649 -0.228849 -0.659374 0.271060 0.060189 -0.355185 0.158458 -0.394495 0.075154 0.350387
fear -0.578289 0.544892 0.575290 -0.327620 -0.155902 -0.546455 -0.105700 -0.128595 0.560454 0.130170 -0.089835 -0.314056 -0.657069 0.348758 -0.356489 -0.248810 -0.298901 -0.453930 -0.266546 0.045242 0.015397 -0.646550 -0.317549 0.365232 -0.606653 0.360026 -0.141559 -0.256083 0.044834 -0.208663 0.187201 -0.247818 -0.421366 0.347165 0.032378 0.254102 -0.656727 -0.138144 -0.420111 0.440556 0.013170 -0.350034 -0.568110 0.277065 -0.021810 0.386251 -0.237352 0.196106 0.104011 0.299359
somebody -0.631036 0.180433 0.238753 0.077789 -0.529641 -0.541681 0.167160 0.151175 0.374450 -0.398877 -0.218118 -0.496245 -0.656392 -0.146055 -0.441529 0.362826 -0.499207 0.017496 -0.081490 -0.081206 -0.251850 -0.783500 0.113991 0.731224 0.054047 0.527038 0.226192 0.041519 -0.133742 -0.276122 0.062267 -0.220921 -0.107554 -0.628592 0.143857 -0.326998 0.012344 0.587156 0.042317 -0.143764 -0.501743 -0.030724 0.136883 0.487542 0.190308 -0.032883 -0.453506 0.287752 -0.102347 0.149101
would -0.572228 0.200623 0.155662 -0.529103 -0.675586 -0.326047 0.013974 -0.068625 0.001004 -0.100288 -0.347008 -0.648243 -0.423027 -0.273706 -0.407780 0.198716 -0.977643 -0.751161 -0.247544 0.429102 0.027398 -0.351782 0.077973 0.578284 -0.356548 0.091252 -0.262983 -0.118735 -0.854801 -0.132798 0.249633 -0.764344 0.032264 -0.455884 -0.200245 -0.021303 -0.583997 0.055383 0.037898 -0.106819 0.271284 -0.320274 -0.412485 0.374461 0.559100 0.266422 -0.479082 -0.160437 -0.010459 0.110650
discover -0.374163 0.670498 0.361668 0.103750 -0.300759 -0.258460 0.254890 -0.424428 0.298597 -0.127019 -0.395603 -0.511117 -0.281757 -0.397591 -0.576614 0.179901 -0.518778 0.089832 0.021127 -0.033083 0.128973 -0.612732 -0.087921 -0.035418 -0.554947 -0.191286 0.244095 -0.553883 -0.429717 -0.230639 0.583717 0.199537 -0.381594 0.363690 -0.223805 -0.171861 -0.029528 0.458488 -0.320905 -0.026598 0.346719 -0.061880 -0.160460 0.173113 0.371317 0.149428 0.070707 -0.132606 -0.123620 0.151796
it -0.582586 0.118398 0.079804 -0.266255 -0.856934 -0.372956 0.053962 -0.056042 0.080753 0.073903 -0.659927 -0.452789 -0.454690 0.092284 -0.424573 0.064976 -0.471382 -0.857546 -0.312919 0.044380 -0.012916 -0.339883 -0.330537 0.243542 -0.484916 0.088979 0.039329 -0.060632 -0.564593 0.093939 0.135422 -0.625593 0.236990 -0.188518 0.123785 0.117305 -0.675567 -0.017733 0.165460 0.129658 0.128546 -0.361631 -0.489956 0.127809 0.256042 0.112103 -0.377237 -0.238972 0.097505 0.120469
think -0.623112 0.072224 0.213466 0.155141 -1.323243 -0.231094 -0.175052 -0.406295 0.079739 -0.168752 -0.508175 -0.731909 -0.652918 -0.125143 -0.632995 0.101304 -0.604739 -1.106456 -0.537187 0.085467 0.316309 -0.246062 -0.019157 0.527982 -0.838649 -0.054695 0.275484 -0.168844 -0.764768 -0.165092 0.013973 -0.959600 -0.003606 -0.231876 -0.074244 0.212261 -0.542660 -0.000667 0.148578 0.221870 -0.046931 -0.101243 -0.291379 0.482657 0.459296 0.018938 -1.028038 0.173565 0.045972 -0.088503
could -0.646391 0.098863 0.164979 -0.248656 -0.896918 -0.392685 -0.140643 0.081000 -0.061914 -0.264938 -0.569959 -0.353935 -0.236172 0.055339 -0.578847 0.190727 -0.711058 -0.787463 -0.189820 0.393387 -0.145014 -0.387474 -0.269299 0.628938 -0.450850 0.046621 -0.093788 -0.204388 -0.845751 -0.284375 0.087691 -0.630623 0.214911 -0.105620 -0.056460 0.111371 -0.647470 0.357884 -0.026494 -0.198026 -0.022883 -0.607004 -0.583798 0.250449 0.371217 0.054745 -0.478991 -0.042113 0.131269 0.080702
bear -0.699574 0.292518 0.096783 0.019504 -0.395376 -0.148341 0.037107 -0.138341 0.309572 -0.507608 -1.072568 -0.658929 0.064533 0.022022 -0.709687 0.452000 -0.215055 -0.666185 -0.397215 -0.652336 -0.661790 -0.118293 0.125264 0.668169 -0.335682 0.335167 0.238431 -0.184190 -0.383675 0.271180 0.010521 -0.410415 -0.459593 0.042796 0.328667 0.340411 -0.242914 -0.430465 0.024205 0.148492 0.201601 0.138585 -0.904113 0.246892 0.078958 0.322896 0.063210 0.248808 -0.065804 -0.014092
if -0.617223 0.202483 0.132649 -0.123710 -0.884642 -0.281836 -0.078615 -0.133987 -0.017189 -0.211044 -0.541122 -0.729085 -0.652949 0.211178 -0.560973 0.083877 -0.502204 -0.746200 -0.498859 0.046976 0.110023 -0.288554 -0.406222 0.391586 -0.802726 0.064896 0.123520 -0.194188 -0.836257 -0.159918 0.077641 -0.770343 0.081646 -0.166613 -0.021410 0.331901 -0.646850 0.010903 0.116283 0.093315 0.056641 -0.031790 -0.354441 0.189270 0.442319 -0.098214 -0.645766 -0.178806 0.099726 0.085576
anyone -0.559833 0.340502 0.336498 -0.381584 -0.544191 -0.752690 -0.210912 -0.359142 -0.057039 -0.034517 -0.615017 -0.359241 -0.111274 -0.125278 -0.861898 0.080501 -0.678022 -0.650869 -0.440225 -0.153540 -0.146067 -0.789456 -0.263451 0.312179 -0.582901 0.166394 0.029243 -0.003247 -0.734620 -0.257392 0.301239 -0.514342 -0.055998 -0.383479 0.066749 0.162131 -0.483675 -0.114227 -0.178129 -0.036400 0.149222 -0.184957 -0.315530 0.430207 0.454043 0.105663 -0.185723 -0.156056 0.138956 -0.048234
found -0.842718 0.070384 0.191485 -0.280075 -0.824151 -0.510671 0.035777 -0.121737 0.029914 0.007458 -0.800528 -0.599188 -0.562665 -0.030187 -0.439163 0.282642 -0.663797 -0.579204 -0.459416 0.072624 -0.127762 -0.915309 -0.429535 0.178459 -0.546210 0.045333 -0.073758 -0.345502 -0.515579 0.041106 0.184825 -0.532159 -0.041347 0.077447 -0.195025 0.055859 -0.593450 0.185880 -0.020292 0.267378 -0.129815 -0.203885 -0.636666 -0.007791 0.220922 0.015227 -0.018191 0.162881 0.135326 0.077219
out -0.254642 0.123125 0.164509 0.123154 -0.669292 -0.375831 0.360942 0.009422 0.150676 0.143780 -0.692649 -0.550341 -0.409205 0.177364 -0.473546 0.148472 -0.546732 -0.377679 0.022372 -0.148061 -0.266625 -1.079010 -0.204549 0.032216 -0.514481 0.014461 0.123007 0.000864 -1.028085 0.230554 0.198245 -0.611652 -0.198675 -0.006269 0.277176 -0.257140 -0.718547 0.210324 0.004800 0.143111 -0.148872 -0.156403 -0.764459 0.174497 -0.002923 0.043496 -0.382466 -0.270549 -0.033119 0.204678
about -0.761373 0.042924 0.147908 -0.494058 -0.701652 -0.473531 0.092079 -0.113274 0.090457 -0.066422 -0.428918 -0.569709 -0.572863 -0.003994 -0.319157 0.161706 -0.786109 -0.331144 -0.339759 0.279462 0.101973 -0.389627 -0.129124 0.145511 -0.269473 0.116191 0.296297 -0.210190 -0.692664 0.017503 0.152269 -0.606252 0.101504 -0.082560 0.044057 0.241098 -0.678330 0.225841 0.032021 0.285246 0.202874 -0.418831 -0.399920 0.204300 0.151599 0.072367 -0.651213 0.009277 -0.055207 0.148579
Potters -0.902209 0.409719 0.288273 -0.341574 -0.837401 -0.203360 0.069991 -0.099957 0.218388 -0.064821 -0.637741 -0.368474 -0.435691 0.006690 -0.539025 0.020666 -0.349173 -0.323726 -0.794955 -0.465864 -0.440176 -0.346715 -0.129058 0.277994 -0.548392 -0.176929 0.223489 0.143178 -0.726418 0.245380 0.442987 -0.172923 -0.371749 -0.006402 0.140645 0.153291 -0.487244 -0.217810 -0.285560 0.206467 0.217748 -0.106685 -0.569760 0.168369 0.065459 -0.211916 -0.065235 -0.264637 -0.511442 0.403943
sister -0.748055 0.287003 0.210670 -0.447144 -0.382874 -0.901066 -0.344919 -0.173768 0.407537 0.255639 -0.243906 -0.585231 -0.317414 -0.394770 -0.117839 0.594730 -0.536256 -0.697968 0.148864 -0.155034 -0.106699 -0.822709 -0.175839 0.292907 -0.459960 0.053444 0.153210 0.164102 -0.353666 0.237216 0.146997 -0.217322 -0.247302 -0.307157 0.382927 0.156966 -0.131360 0.319090 0.270036 -0.065415 0.324619 -0.586910 -0.568823 0.041491 0.257800 -0.309082 -0.350593 -0.378847 0.051059 -0.266791
hadnt -0.974130 0.228269 0.222462 -0.611802 -0.557501 -0.738756 -0.125003 -0.477745 0.015310 -0.228049 -0.808053 -0.574590 -0.405723 0.148303 -0.368347 0.363489 -0.828355 -0.603198 -0.631963 0.127161 -0.305805 -0.362500 -0.101690 0.307847 -0.251890 0.119266 -0.168017 0.021945 -0.831385 -0.036630 0.103051 -0.675652 0.331048 -0.087611 -0.297975 0.127103 -0.708108 0.153288 -0.327131 -0.033377 0.109859 -0.416988 -0.725669 0.002724 0.434922 0.137591 -0.126995 0.127431 -0.087574 0.044577
met -0.433721 0.199397 0.383650 -0.355129 -0.527205 -0.901430 -0.245836 0.089985 0.015407 -0.094773 -0.404305 -0.159345 -0.162827 0.247481 -0.645347 0.009192 -0.362461 -0.844526 -0.860811 0.105028 0.047032 -0.795739 -0.068086 0.172692 -0.192887 -0.048228 0.253581 -0.226565 -0.482536 0.240621 0.414320 -0.369384 -0.030663 0.071024 -0.329954 0.081787 -0.428740 0.399541 0.034835 0.000325 0.218577 -0.299667 -0.560147 0.153742 0.472113 -0.076941 -0.618195 -0.153924 0.145229 -0.053660
for -0.317503 0.121489 0.118380 -0.450018 -0.407789 -0.593717 0.316452 -0.234817 0.149549 0.064641 -0.417586 -0.756585 -0.319750 0.219362 -0.354611 0.164432 -0.441406 -0.503471 -0.681857 -0.145530 -0.223776 -0.541581 -0.277060 0.094429 -0.457431 0.330849 0.279672 0.017882 -0.603626 0.100279 0.086635 -0.517078 -0.177351 -0.426184 -0.026400 -0.008698 -0.536419 0.243274 0.167400 0.133173 0.205640 -0.574331 -0.452741 0.174542 0.140893 0.152744 -0.638647 0.021373 0.164120 0.275237
several -0.837432 -0.042824 0.544520 -0.533591 -0.406098 -0.237159 0.073323 -0.111809 0.244477 0.265778 -0.078875 -0.399897 -0.442741 -0.209773 -0.471289 0.140377 -0.277878 -0.671225 -0.140785 0.099496 -0.290133 -0.580907 -0.432034 0.114971 -0.225306 0.495263 0.040170 -0.249777 -0.097092 0.310324 0.436838 -0.547068 0.050952 -0.422061 -0.074905 0.127076 -0.298118 0.331221 -0.058872 0.125321 0.190100 -0.686648 -0.431712 0.397117 -0.048267 -0.148696 -0.110356 -0.295030 -0.062468 0.207849
years -0.225458 0.349317 0.308015 -0.754345 -0.239240 -0.891662 0.094886 -0.102372 -0.023440 0.115916 -0.322407 -0.470542 -0.323609 0.308469 -0.656477 0.059776 -0.725877 -0.832143 -0.666804 0.035853 -0.576005 -0.761679 -0.289895 0.109985 -0.239546 -0.041543 0.107517 0.282319 -0.455010 0.002392 0.576988 -0.549847 -0.326317 -0.193829 -0.282033 0.055655 -0.640202 0.276636 0.276964 0.021419 -0.457386 -0.160590 -0.154638 0.081883 0.122015 -0.042306 -0.693331 -0.235330 -0.137323 0.260765
fact -0.839147 0.290923 0.663356 -0.157177 -0.239198 -0.352625 -0.293036 -0.421903 0.323104 0.123083 -0.612821 -0.343338 -0.214551 -0.167582 -0.161769 -0.058804 -0.321715 -0.558049 -0.204501 0.146378 -0.659179 -0.750822 -0.222065 0.088913 -0.540884 0.098396 0.122976 -0.019404 -0.396292 -0.182082 0.584192 -0.579673 0.200831 -0.047665 -0.036589 0.197816 -0.148570 0.318238 -0.054058 -0.078359 -0.407074 -0.432772 -0.497460 0.059089 0.414131 -0.043721 0.082373 -0.460244 -0.549889 0.279140
pretended -0.382829 0.043205 0.486242 0.091681 -0.166688 -0.475073 -0.375843 -0.207960 0.593860 0.263592 -0.868167 -0.555344 -0.580373 -0.253398 -0.202775 -0.075066 -0.526476 -0.007794 -0.422272 -0.005042 -0.127143 -0.207888 -0.094479 0.346314 -0.173541 0.240117 0.347076 0.177558 -0.290406 -0.368606 -0.025415 -0.494476 0.563092 -0.038986 0.105034 0.536905 -0.043407 -0.402232 -0.346095 0.579366 0.007176 -0.343425 -0.275288 0.538230 0.495112 -0.436650 -0.340643 -0.069073 -0.315485 -0.228244
goodfornothing -0.306449 0.089803 0.476039 0.216605 -0.323557 -0.266678 0.305206 -0.429552 0.397239 -0.420400 -0.359382 0.110989 -0.203703 -0.395519 -0.074612 0.295414 -0.485114 -0.169160 -0.059741 -0.056144 -0.186395 -0.561778 0.309686 0.489007 0.012094 0.440479 -0.210506 -0.096133 -0.651444 0.019997 -0.011862 -0.647333 0.048420 -0.310661 -0.253967 0.133898 -0.451292 0.421505 -0.092237 -0.110654 0.275443 0.243251 0.014393 0.021465 0.497183 0.397318 -0.599730 -0.084252 0.186949 0.506436
husband -0.532867 0.753496 0.267535 0.202872 0.102294 -0.627410 0.293195 0.466746 -0.190529 -0.450953 -0.884350 -0.660894 -0.099948 -0.286290 0.149699 0.471351 -0.192579 -0.004205 0.209708 -0.292350 -0.193901 -0.384567 -0.413971 0.582181 0.067233 -0.120412 -0.008388 -0.263911 -0.073895 0.087367 0.237135 0.100564 -0.034722 -0.265565 -0.131380 0.002348 -0.111112 0.257050 0.387002 0.127882 -0.325809 -0.182605 -0.251225 0.039288 0.407891 0.319079 -0.100921 0.383425 -0.344003 0.050115
unDursleyish -0.118710 0.160997 0.277731 -0.498943 -0.221612 -0.104526 -0.464550 0.471832 0.362476 -0.367557 -0.600992 -0.322361 -0.233215 -0.044629 -0.681423 -0.236380 -0.408507 0.069247 -0.269207 -0.378574 -0.321200 -0.049498 -0.209508 0.672241 -0.261915 0.515104 0.179941 -0.309216 0.051707 0.250832 -0.016400 0.089201 0.518240 0.109977 0.518371 0.710585 0.270530 -0.090788 0.232911 -0.139172 0.284510 -0.133385 -0.526621 0.002875 -0.110185 -0.409752 -0.493223 -0.216977 -0.112242 0.490530
possible -0.194908 0.409395 0.060463 0.008541 -0.608737 -0.862406 -0.250130 -0.044771 0.017495 -0.196061 -0.708464 -0.460446 -0.625482 0.435775 -0.674775 0.120964 -0.021856 -0.590421 -0.636562 0.010342 0.341533 -0.291037 -0.400672 0.098958 -0.289353 0.495640 0.071367 0.046306 -0.383249 -0.012599 0.421307 -0.272054 -0.042372 -0.027947 0.299728 0.290915 -0.444818 -0.464512 0.280097 0.068870 -0.359175 -0.556503 -0.619944 0.029863 0.658830 -0.148382 -0.440675 -0.320215 -0.093757 0.245195
shuddered -0.309995 -0.053112 0.476696 -0.216915 -0.473409 -0.695598 0.138797 0.369128 0.555725 -0.094725 -0.787641 -0.478215 -0.049232 -0.515061 -0.017884 0.288692 -0.665316 -0.051262 0.187045 -0.365296 -0.541052 -0.197000 -0.134144 0.707241 0.003460 0.394083 -0.300235 0.192103 -0.691665 -0.297799 0.258114 -0.037860 -0.476519 -0.506290 -0.275149 -0.349069 -0.019041 0.469222 -0.425393 -0.065859 0.324266 -0.247909 -0.010014 0.392647 0.474952 -0.137062 -0.016048 -0.159206 -0.056417 -0.019262
what -0.889754 0.186560 0.130294 -0.270574 -1.158345 -0.287663 -0.074919 -0.399099 0.037518 -0.069892 -0.501268 -0.401644 -0.570295 0.175529 -0.733499 0.031736 -0.321331 -0.887886 -0.272052 0.089998 0.015368 -0.318273 -0.240775 0.407034 -0.470501 0.016027 0.083902 -0.309561 -0.800492 0.006423 0.097442 -0.993901 0.453826 -0.137772 -0.037138 0.001883 -0.630640 0.114953 -0.010719 0.213563 0.105238 -0.082301 -0.095606 0.179632 0.262189 -0.053513 -0.614659 -0.130686 0.400139 0.100984
arrived -0.552117 0.551550 0.324465 -0.761145 -0.755328 -0.729643 -0.163612 -0.328042 0.609102 -0.395373 -0.502539 -0.531329 -0.432890 0.091414 -0.575523 0.035446 -0.504115 -0.184778 -0.392558 -0.097397 -0.535101 -0.528488 -0.079849 -0.016968 -0.081484 0.139914 0.147235 -0.077549 -0.646838 0.186235 0.120811 -0.400949 0.222422 0.044318 0.310581 0.233427 -0.756206 0.399623 -0.098922 0.274898 -0.301729 -0.076102 -0.025693 -0.132778 0.028972 -0.283390 0.135546 -0.477592 -0.315215 -0.003155
street -0.528371 0.268664 0.367837 -0.435662 -0.549118 -0.338614 0.090860 -0.177459 0.165152 -0.063750 -0.804086 -0.661799 -0.300897 0.212695 -0.362172 0.230254 -0.488368 -0.328074 0.118930 0.085791 -0.429144 -0.798508 -0.199240 -0.164960 -0.301174 0.361735 0.169447 -0.206693 -0.356222 0.417786 0.312674 -0.538192 -0.463135 -0.115075 -0.274542 -0.188221 -0.203507 0.360597 -0.309613 -0.094861 0.069903 -0.353751 -0.480018 0.314388 0.140552 -0.245167 -0.428943 -0.524902 0.015634 0.450100
knew -1.124044 0.181498 0.164088 -0.442616 -0.731231 -0.381015 -0.039900 0.009131 0.204516 -0.431559 -0.642739 -1.019620 -0.238773 -0.062321 -0.403139 0.137637 -0.812689 -0.894765 -0.723579 0.249450 -0.070042 -0.369036 0.026611 0.557198 -0.340231 -0.007887 0.253361 -0.244034 -0.665167 -0.264831 0.230917 -0.698999 0.049912 0.094491 -0.372451 0.126552 -0.464038 0.042631 -0.279273 0.094121 0.075753 -0.287024 -0.697768 0.156605 0.310998 -0.146542 -0.203115 0.028779 -0.099908 0.026156
too -0.792397 0.139356 0.111601 -0.302551 -0.502129 -0.312719 0.272956 -0.208060 0.231403 -0.116500 -0.832363 -0.515504 -0.171058 -0.043283 -0.546068 -0.006758 -0.503071 -0.767558 -0.580883 -0.012723 -0.093556 -0.392665 -0.138738 0.391512 -0.235580 0.284235 -0.025985 -0.341551 -0.794711 -0.126656 0.219940 -0.460350 -0.081681 -0.129428 0.189801 0.313437 -0.474488 -0.095540 0.228822 0.141394 -0.016639 -0.448030 -0.438628 0.280231 0.113975 0.053743 -0.366357 -0.206680 -0.121953 -0.043103
never -0.962678 0.306365 0.069011 -0.206429 -0.778487 -0.700396 -0.046474 -0.219388 -0.060894 -0.277249 -0.552035 -0.773015 -0.334080 0.003833 -0.274549 -0.047412 -0.691539 -0.977238 -0.548533 0.059402 -0.456883 -0.345948 -0.279574 0.435774 -0.591712 -0.036032 -0.282092 -0.375227 -0.719328 -0.280572 0.140076 -0.760889 0.525074 -0.366718 0.072515 0.024578 -0.509950 0.272011 0.087813 -0.034179 0.189815 -0.607270 -0.524280 0.213379 0.351631 -0.024631 -0.263742 -0.054586 0.153526 0.165178
even -0.702359 0.214724 0.266262 -0.389537 -0.626053 -0.691159 -0.162556 -0.029480 0.032346 -0.095710 -0.599864 -0.455188 -0.225895 0.138120 -0.385617 0.184043 -0.510908 -0.729510 -0.164941 0.124053 -0.150850 -0.259568 -0.293311 0.284399 -0.735079 0.095390 -0.110649 -0.077281 -0.557807 -0.350194 0.282812 -0.695805 -0.120621 -0.026762 0.039174 0.045480 -0.743678 0.103135 0.193307 0.124563 -0.088062 -0.483275 -0.562217 0.210831 0.255777 0.011493 -0.245503 0.091238 0.046122 0.073648
seen -0.786649 0.414342 0.178644 -0.706618 -1.001263 -0.819848 0.089523 -0.183997 0.009104 -0.084735 -0.417314 -0.583041 -0.179749 -0.205761 -0.289726 0.100357 -0.474047 -0.606014 -0.624044 0.339515 -0.637490 -0.597088 -0.018201 0.420052 -0.655167 0.017387 -0.090123 -0.457964 -0.920280 -0.399992 0.389163 -0.808464 0.280794 -0.307830 -0.000282 -0.109928 -0.494372 0.247032 0.182311 -0.104445 0.053713 -0.630610 -0.413586 -0.002111 0.097691 -0.017436 -0.206066 0.043656 0.029773 0.016794
him -0.578839 0.074177 0.077773 -0.026579 -0.368531 -0.519859 0.086106 -0.164696 0.087360 -0.076166 -0.737167 -0.451889 -0.505090 0.296623 -0.482338 0.153154 -0.668014 -0.899556 -0.092195 0.240849 -0.294494 -0.438988 -0.157825 0.156781 -0.323156 0.118592 0.084951 -0.169977 -0.386906 0.250809 0.084243 -0.529857 0.234011 -0.156760 0.245843 0.059822 -0.720080 0.089695 0.162250 0.238265 -0.322707 -0.228768 -0.813806 0.161484 0.142666 0.157605 -0.395383 -0.499283 -0.043248 0.127301
This -0.604077 0.206875 0.164023 -0.872367 -0.806196 -0.664195 0.282275 -0.305554 0.266532 0.312786 -0.652999 -0.355529 -1.048029 0.203814 -0.680853 0.074047 -0.190192 -0.520898 -0.639273 -0.141524 0.003764 -0.414105 0.121124 0.198501 -0.296888 0.232818 0.130358 -0.460497 -0.762927 0.096821 0.342697 -0.342967 -0.155197 -0.526043 0.073769 0.157629 -0.158448 -0.287726 0.183172 0.066258 0.030179 -0.490378 -0.130732 0.102801 0.067732 -0.327934 -0.391194 -0.128022 0.003147 0.213928
another -0.592926 0.178553 0.231161 -0.179934 -0.715397 -0.747139 -0.065501 -0.201495 0.221864 0.131887 -0.597707 -0.553696 -0.375107 -0.022334 -0.742451 0.098304 -0.253161 -0.737729 -0.443960 -0.183073 -0.379833 -0.578785 -0.406049 0.165719 -0.308577 0.347662 -0.206885 -0.004068 -0.433544 -0.222078 0.331435 -0.323072 -0.241920 -0.370190 0.025009 -0.111904 -0.406531 0.021240 0.268415 0.076439 0.139951 -0.722184 -0.322674 0.280098 0.081444 -0.082743 -0.009288 -0.207138 -0.116037 0.284988
good -0.590092 0.397662 0.304020 -0.334691 -0.763583 -0.431276 0.245285 0.175758 0.131209 0.409748 -0.850141 -0.791841 -0.442329 -0.119213 -0.408815 0.019103 -0.582645 -0.340505 -0.180019 0.110905 -0.391421 -0.520643 -0.044084 0.128611 -0.389753 0.175989 0.136745 -0.261689 -0.644153 -0.376731 0.277750 -0.382181 0.245620 -0.131891 -0.079860 -0.022330 -0.562166 0.056232 0.370826 0.031734 -0.361161 -0.256780 -0.659524 0.128679 0.075042 -0.373940 -0.499207 -0.037080 -0.137768 -0.081906
reason -0.274512 0.220820 0.313308 -0.303702 -0.222253 -0.646025 0.119059 -0.087428 0.325828 0.270089 -0.900411 -0.502320 -0.236600 0.292524 -0.558283 0.262996 -0.860818 -0.507894 -0.131084 -0.256121 -0.318534 -0.646086 -0.003932 0.320398 -0.404819 -0.098982 0.269177 0.019364 -0.476815 0.009636 0.135871 -0.850386 -0.013114 -0.384850 -0.151602 -0.028489 -0.761668 -0.163829 -0.120073 0.256302 -0.472359 -0.250724 -0.616967 0.233500 0.034469 -0.075497 -0.110139 -0.132480 -0.448200 -0.203963
keeping -0.799950 0.475833 0.444800 -0.049481 -0.518516 -0.342342 0.061438 0.241460 -0.031166 0.206331 -0.961598 -0.356145 -0.799800 0.344349 -0.226845 0.369609 -0.305366 -0.152715 -0.012930 -0.176325 -0.057421 -0.502782 -0.694483 0.181771 -0.527752 -0.024809 -0.372284 -0.327399 -0.768503 -0.043682 0.291418 -0.706873 0.037592 -0.085026 0.304731 0.117909 0.010773 0.328949 -0.425491 -0.235840 -0.009996 -0.547518 -0.083660 0.002719 0.221942 -0.254590 -0.077938 -0.481874 0.222240 0.054239
away -0.396412 0.324851 0.189628 -0.001419 -0.420150 -0.326871 0.191740 0.033113 0.127914 -0.136698 -0.563683 -0.660496 -0.648564 0.167692 -0.509936 0.225734 -0.483676 -0.505991 -0.079759 -0.034158 -0.252171 -0.563928 -0.210028 0.178475 -0.093351 0.095473 -0.323761 0.153240 -0.587413 -0.034175 0.185845 -0.682146 -0.361349 0.005606 0.392159 -0.137345 -0.522598 0.200249 0.140856 0.076884 -0.113441 -0.438474 -0.500560 0.109789 0.194269 0.086995 -0.194776 -0.191680 -0.107796 0.379066
want -0.505665 -0.037211 0.223563 0.358841 -0.982774 -0.174120 -0.184040 -0.365517 0.072705 -0.349789 -1.133555 -0.503439 -0.457617 -0.256408 -1.136323 0.120254 -0.476165 -0.900633 -0.457559 0.182452 0.321043 -0.144895 -0.227641 0.616572 -0.610044 0.057607 -0.018570 -0.498353 -0.817249 -0.126710 0.053425 -0.882970 0.073100 -0.287872 -0.160777 0.099153 -0.861142 -0.169630 0.292972 0.293057 -0.020322 -0.232155 -0.343802 0.639274 0.590779 0.281131 -0.699893 -0.075576 -0.197970 -0.119622
mixing -0.692235 0.512724 0.386770 -0.108023 -0.165463 -0.613960 -0.169805 -0.239677 0.632356 0.020045 -0.523711 -0.334973 -0.321397 -0.205115 -0.365385 0.341931 -0.130609 -0.144283 -0.595782 -0.396726 -0.451502 0.066430 -0.124466 -0.127882 -0.215365 -0.157822 0.180364 -0.216893 0.018964 -0.133745 0.223652 -0.339635 0.153236 -0.471268 0.093304 -0.314366 0.019477 0.229858 -0.381037 -0.267263 0.185067 0.000617 -0.158920 0.276622 0.530568 0.190880 -0.510450 -0.604417 0.330050 0.543016
child -0.104373 0.403081 0.497035 -0.316008 0.029007 -0.760009 0.061820 0.324324 0.122348 0.147802 -0.578455 -0.796946 -0.051321 0.252270 -0.318378 0.155107 -0.528207 -0.592450 -0.356865 -0.137509 0.151958 -0.137099 -0.351543 0.057653 -0.627121 0.289958 -0.294675 -0.573748 0.109466 0.056680 0.303790 -0.050833 -0.020634 -0.122647 0.116930 0.116884 0.102109 0.004449 0.109480 -0.136242 -0.235471 -0.463901 -0.323880 0.423932 0.464344 0.009656 0.315174 0.311563 -0.273386 -0.245078
like -0.755839 0.177372 0.175124 -0.178234 -0.654766 -0.339145 0.130065 0.114850 0.115071 -0.041214 -0.682552 -0.522502 -0.550418 0.217077 -0.428250 0.256091 -0.475587 -0.537260 -0.146265 -0.266097 0.110152 -0.429618 -0.184479 0.109116 -0.370380 0.205521 0.122656 -0.036293 -0.634854 -0.158841 0.172846 -0.341676 0.079787 0.028053 0.114000 0.024913 -0.504381 0.300728 0.135708 0.058024 0.228731 -0.303347 -0.435043 0.135098 0.105406 -0.204998 -0.319477 -0.083648 -0.058277 0.141048
When -0.778825 0.319014 0.288911 -0.173614 -0.480329 -0.380698 -0.270369 -0.346291 0.309981 0.011662 -0.768579 -0.343133 -0.224673 -0.023358 -0.331826 0.298166 -0.500439 -0.924760 -0.330444 0.051240 -0.305069 -0.346972 -0.175386 0.302150 -0.164208 0.259748 -0.080512 0.133345 -0.721326 -0.028377 0.322452 -0.737184 0.097600 0.063293 0.065008 -0.061656 -0.395196 0.015880 -0.127735 -0.173627 0.031641 -0.382325 -0.273562 0.231645 0.158667 0.134428 -0.139064 -0.192435 -0.149024 0.015955
woke -0.609350 -0.112589 0.592602 -0.036831 -0.214437 -0.146847 -0.018186 -0.000018 0.581474 -0.252457 -0.847501 -0.097905 -0.611712 0.215371 -0.517558 0.482359 -0.690094 -0.246590 -0.526860 0.158353 0.032376 -0.227251 0.052487 0.094323 -0.453022 0.380275 0.295613 -0.244247 -0.069995 -0.059223 -0.020949 -0.762467 0.121691 -0.336945 0.238348 0.259234 -0.535749 -0.330167 -0.288245 0.244146 -0.440505 -0.719686 -0.601383 0.366525 -0.289533 0.180275 -0.247000 -0.210592 -0.421595 0.222815
up -0.503064 0.091671 0.164266 -0.114917 -0.522548 -0.460799 0.168416 -0.032928 0.172621 0.014519 -0.480285 -0.524777 -0.371034 0.406453 -0.542775 0.220083 -0.699062 -0.553532 -0.184307 0.035108 -0.197966 -0.848248 -0.252446 0.075598 -0.172569 0.101948 0.192825 0.187654 -0.390073 0.272980 0.025905 -0.588419 -0.104326 -0.121159 0.161340 -0.077970 -0.677063 0.092828 -0.072277 0.205859 0.009668 -0.399695 -0.615983 0.160428 0.127397 0.072031 -0.203436 -0.419560 -0.095377 0.201923
dull -0.577973 0.065931 0.478804 -0.015407 -0.866698 -0.368481 -0.080581 -0.177160 0.748072 0.094493 -0.609874 -0.024419 -0.633054 -0.327379 -0.731111 -0.174190 -0.333226 0.158506 -0.469391 0.105824 -0.078815 0.021558 0.289789 0.351376 0.119391 0.259137 0.232902 -0.430447 0.003152 0.326651 0.217514 -0.137097 -0.308248 -0.348084 0.271972 -0.290130 -0.301041 -0.054842 0.258980 0.331515 0.392134 -0.318215 -0.450747 0.478269 0.033161 0.092020 0.269162 -0.244553 0.003011 0.313293
gray -0.494364 0.381019 0.653379 0.215081 -0.408993 -0.343839 -0.288574 0.033124 0.412257 0.095648 -0.668458 0.079874 -0.495103 -0.063103 -0.260823 0.114297 -0.523507 -0.600505 -0.522380 0.061157 -0.064025 -0.760527 -0.290530 0.048968 0.137173 0.186001 0.201144 -0.289706 -0.577691 0.498310 0.561996 -0.051352 -0.151244 -0.561465 0.237020 0.493973 -0.276119 0.184339 -0.091249 -0.000989 -0.370265 -0.327880 -0.450506 -0.121273 0.301470 -0.008647 -0.708704 0.205588 -0.030949 0.268585
Tuesday -0.308881 0.417401 0.701226 -0.513832 -0.571518 -0.480199 0.170689 0.160950 -0.066723 -0.081178 -0.532816 -0.639424 -0.421728 0.227673 -0.128341 0.492649 -0.412583 -0.044526 0.056449 -0.020015 -0.540103 -0.620572 0.387419 -0.071385 0.101841 -0.022066 -0.199349 0.375261 0.164153 -0.307489 0.389880 0.059120 0.304699 -0.549855 -0.184475 0.366269 -0.431151 -0.085973 0.009982 0.530546 -0.414526 -0.218655 -0.647641 0.145015 0.480621 -0.196785 -0.609638 -0.162889 -0.427439 0.188715
our -0.221701 0.427733 0.152768 0.034465 -0.795609 -0.595024 0.096063 0.123741 0.041643 -0.318130 -0.603251 -0.391218 -0.301821 0.081266 -0.714994 0.063650 -0.553848 -0.335206 -0.283610 -0.315157 -0.237141 -0.238938 -0.283343 0.162862 -0.137276 0.173757 -0.122592 -0.299123 -0.540277 0.024182 0.386987 -0.811480 0.186941 -0.274428 -0.120147 0.008593 -0.433925 0.053417 0.462326 0.532808 0.124540 -0.173848 -0.290182 0.258048 0.258996 -0.244646 -0.285277 -0.268848 -0.179534 0.204859
story -0.652040 0.162384 0.569025 -0.002501 -0.324559 -0.364143 0.167453 -0.223157 0.078121 0.213951 -0.609873 -0.522313 -0.231606 -0.103710 -0.672130 0.217496 -0.500814 -0.437623 -0.702603 0.136065 -0.090435 -0.488333 -0.641681 0.253588 -0.304685 -0.135116 0.008197 0.110385 -0.844399 0.489485 0.030239 0.004794 0.140203 0.033195 0.161993 -0.392138 -0.314973 0.079744 0.309551 0.242351 0.103906 -0.580303 -0.136806 0.545219 -0.124525 -0.071500 -0.415969 -0.304678 -0.542175 0.113390
starts -0.069548 0.323566 0.321905 0.110284 0.043775 -0.525723 -0.309213 -0.496530 0.181336 0.191041 -0.776035 -0.507298 0.087906 -0.038355 -0.695702 0.588107 -0.687064 -0.081391 -0.521966 0.355001 -0.420829 -0.191973 -0.296040 0.300695 -0.108704 0.252688 -0.180842 -0.037556 -0.626894 -0.461292 0.380044 -0.049527 -0.409208 0.210557 0.372087 -0.045458 0.098886 0.509850 -0.086937 0.271631 -0.394160 -0.690149 0.064635 0.406753 -0.053458 0.050628 -0.238249 -0.405433 -0.582776 0.144761
nothing -0.810562 0.301177 0.192598 -0.582688 -0.451080 -0.414967 0.082443 -0.102270 0.099474 0.135087 -0.823534 -0.394548 -0.476207 0.037545 -0.433891 -0.031558 -0.524387 -0.872395 -0.433957 0.057855 -0.186938 -0.697071 -0.439366 0.365374 -0.633407 0.131967 -0.023023 -0.107780 -0.628323 -0.194804 0.206795 -0.190294 -0.024056 -0.032806 -0.086127 0.148913 -0.858114 -0.048651 -0.004417 0.020509 0.258063 -0.149678 -0.197332 0.338321 0.054649 0.073390 -0.465295 -0.211902 0.113926 -0.082127
cloudy -0.218809 0.174000 0.688238 0.289999 -0.656573 -0.691786 -0.043175 0.360548 0.371968 0.436679 -0.571759 -0.248611 -0.249524 0.239132 -0.514044 -0.215400 -0.601331 -0.457254 -0.565595 -0.163141 0.211732 -0.611798 0.310336 0.408828 0.301365 -0.074408 0.151247 0.253207 0.252169 -0.474600 0.178192 -0.261695 0.414525 -0.491953 -0.465662 -0.290918 -0.261078 0.282432 -0.317672 0.138774 0.261400 -0.531580 -0.721266 0.545301 -0.140668 -0.272064 0.021695 -0.225686 -0.323057 0.123264
sky -0.246602 0.429867 0.489191 0.144980 -0.269257 -0.301900 -0.286111 0.107744 1.008284 -0.059499 -1.035147 -0.705698 -0.279326 -0.051319 -0.337693 0.034076 -0.256991 -0.509329 -0.590142 -0.032965 -0.375682 -0.219197 -0.022564 0.226065 -0.023240 0.180670 -0.022853 -0.417123 -0.541302 -0.072597 0.269770 -0.094537 -0.327994 0.139143 0.107048 0.141321 -0.084004 0.026253 0.324055 0.004006 -0.439468 -0.052564 -0.612264 0.323560 0.212318 -0.326593 -0.168699 -0.251919 -0.482638 0.108057
outside -0.362648 0.253564 0.365132 -0.042817 -0.294013 -0.283527 -0.183615 0.326752 0.393877 -0.086296 -0.675789 -0.288404 -0.358693 0.337979 -0.557350 0.175971 -0.442703 -0.452950 -0.091195 -0.310224 -0.150459 -0.692713 -0.377567 0.081271 -0.455961 0.237075 0.123334 -0.329458 -0.331362 -0.007803 0.303333 -0.230787 0.013895 -0.336436 -0.053858 0.001095 -0.278124 0.324351 -0.100014 0.125652 -0.236836 -0.430477 -0.633895 0.247719 -0.027353 -0.072871 -0.639908 -0.270552 -0.491384 0.475029
suggest -0.542794 0.447226 0.350680 -0.201179 -0.706086 -0.083199 -0.036681 -0.456676 0.324821 -0.519041 -0.359827 -0.779914 -0.273102 0.146588 -0.244806 -0.171706 -0.425406 -0.201833 -0.060007 -0.040583 0.156843 0.037695 0.200744 0.634250 -0.392744 0.396957 -0.114715 -0.218851 -0.596309 0.022973 0.348198 -0.749103 0.060276 -0.593911 -0.338236 -0.418827 -0.703317 0.056230 0.302094 -0.242169 0.207284 -0.345297 -0.246839 0.206727 0.474335 -0.293588 -0.117562 -0.523621 0.102971 0.266049
things -0.517015 0.337214 0.346418 -0.206124 -0.139110 -0.501471 -0.091994 -0.004207 0.230231 -0.118083 -0.456965 -0.539260 -0.540493 0.050089 -0.344808 0.261439 -0.368743 -0.432011 -0.161091 -0.160311 -0.250046 -0.157717 -0.266242 0.266185 -0.688331 0.067785 0.142590 -0.086075 -0.553220 -0.018637 0.249373 -0.531097 0.163876 -0.031787 -0.107831 -0.038276 -0.799162 0.169486 0.012856 0.136043 -0.320068 -0.371854 -0.354461 0.289040 0.206288 -0.229272 -0.501211 -0.417967 0.047437 0.109327
soon -0.712539 0.504129 0.266187 -0.325416 -0.511158 -0.413091 0.013576 -0.005954 0.010496 -0.285574 -0.464739 -0.295809 -0.603165 -0.453424 -0.140699 0.508809 -0.327841 -0.239623 -0.421430 -0.023241 0.116454 -0.516219 0.025731 0.396048 -0.188789 0.245447 -0.175392 -0.098812 -0.148830 -0.457650 0.287776 -0.848849 -0.059381 0.105875 0.017295 0.498394 -0.537189 0.208031 0.016433 -0.295618 -0.107340 -0.677807 -0.611914 0.185003 0.491360 0.102825 -0.520020 -0.342918 0.180121 -0.209383
happening -0.346969 -0.007477 0.353407 0.004365 -0.197096 -0.167415 -0.282385 -0.262985 0.339641 0.228669 -0.352590 -0.570179 -0.171102 0.265668 -0.663387 0.572365 -0.779224 -0.709664 -0.002324 -0.076253 -0.656082 -0.875119 0.101333 0.383638 -0.159095 0.548135 -0.193331 0.089482 -0.221591 -0.205185 0.046524 -0.177196 -0.219519 -0.153741 -0.026954 0.144518 -0.023735 -0.421906 0.201057 0.145397 -0.306488 -0.491973 -0.338615 0.310580 0.447034 -0.397673 -0.413602 0.153845 0.058035 0.197492
all -0.675876 0.188756 0.042708 -0.182661 -0.863141 -0.462524 -0.024487 -0.062077 0.043407 0.123959 -0.620182 -0.643509 -0.526503 0.284174 -0.530918 0.252754 -0.658969 -0.333898 -0.147389 -0.089086 -0.464986 -0.664031 -0.044271 0.042198 -0.179619 0.180164 0.033929 -0.245603 -0.490536 -0.120984 0.023216 -0.535992 -0.001591 -0.012733 0.012392 -0.120334 -0.640223 0.175043 0.220263 0.335787 0.148670 -0.348271 -0.409698 0.107804 0.133192 0.069483 -0.765756 -0.170634 0.204273 0.395495
country -0.664805 -0.035559 0.850998 -0.560956 -0.059379 -0.104212 0.122100 -0.158066 0.138098 0.132488 -0.961699 -0.150355 -0.099382 0.098042 -0.279386 0.096194 -0.020062 -0.601614 -0.135044 -0.346505 -0.498624 -0.695785 -0.151989 0.083767 -0.295264 0.353382 0.354764 -0.302636 0.025293 0.434810 0.179688 -0.373513 -0.060306 0.376857 -0.221218 0.363513 -0.541558 -0.235063 0.051413 0.034842 0.187535 -0.228558 -0.445251 0.155987 0.091947 0.030168 -0.597471 -0.164573 -0.610049 0.373774
hummed -0.262313 0.125231 0.546368 -0.004585 -0.200391 -0.816560 -0.009266 -0.278064 0.634412 -0.277254 -0.547722 -0.493936 -0.563523 0.152688 -0.050042 0.185603 -0.305632 -0.482008 -0.382150 -0.476435 -0.234449 -0.057189 -0.085953 0.675970 -0.048484 -0.203942 0.408322 0.010949 0.061987 0.085433 0.496426 0.070009 -0.115856 -0.237045 -0.119550 0.500833 -0.420249 -0.057448 0.069363 -0.278636 0.171965 -0.302983 -0.540985 0.125665 -0.001720 -0.224583 -0.015773 -0.536122 0.362296 0.019420
picked -0.161863 0.154070 0.721312 -0.208174 -0.409310 -0.585256 0.116666 0.064330 0.585087 -0.345465 -0.796843 -0.827339 -0.153203 0.082179 -0.779229 0.079754 -0.563879 -0.309112 0.083431 -0.290186 -0.058407 -0.516985 0.156620 0.310907 -0.305592 0.028715 0.228106 -0.154265 -0.216453 0.230086 0.041279 -0.231887 -0.169342 0.237387 -0.147905 -0.152800 -0.607868 0.111123 -0.270474 0.243286 -0.175936 -0.475942 -0.674149 -0.053080 -0.024632 -0.020859 -0.358785 -0.536137 -0.131452 0.157160
his -0.519145 0.112070 0.084519 -0.234908 -0.303059 -0.184532 0.079413 0.077502 0.151873 -0.036113 -0.794657 -0.400047 -0.776481 0.218119 -0.161608 0.078668 -0.620408 -0.343535 -0.203886 -0.129756 -0.114853 -0.930881 -0.900719 0.054127 -0.551834 0.231733 0.318986 -0.227231 -0.314734 0.362491 0.137045 -0.375367 -0.106475 0.186094 0.384955 0.259618 -0.224166 0.061478 0.202039 0.271778 -0.194276 -0.542417 -0.654694 0.071620 0.090394 0.438345 -0.207383 -0.968158 0.000518 0.331484
most -0.555345 0.443566 0.459968 -0.044043 -0.505667 -0.544926 0.101849 -0.030109 0.493313 0.116769 -0.363088 -0.259471 -0.547713 0.502982 -0.211025 0.256024 -0.168484 -0.175599 -0.332033 -0.011019 -0.325560 -0.690440 -0.196057 0.330131 0.010467 -0.094070 -0.181092 -0.524776 -0.773338 0.262255 0.048519 -0.700692 -0.231332 -0.106480 0.094176 -0.328588 -0.044175 0.331932 -0.134868 0.168470 0.190163 -0.113747 -0.108663 0.350735 0.080007 0.139653 -0.197661 -0.177806 -0.129280 0.061920
boring -0.361424 0.570570 0.640186 0.209840 -0.234087 -0.195192 0.141689 -0.125847 0.464516 -0.141199 -0.811262 -0.428836 -0.728349 0.297600 -0.323067 0.283531 -0.547023 -0.266122 0.015277 -0.584967 -0.412011 0.030098 -0.226098 0.295032 0.099711 -0.014910 0.331936 -0.413813 -0.540934 -0.260162 0.208998 -0.351470 0.325306 0.259331 -0.329586 0.091281 0.150137 -0.285859 -0.153270 -0.176963 0.219269 -0.224280 -0.447295 0.322294 -0.009726 0.133359 0.159846 -0.044373 -0.450653 0.333649
tie 0.109177 0.343212 0.425418 0.240611 0.197608 -0.313078 0.169849 0.107318 0.674278 0.029727 -0.073937 -0.646323 -0.364862 0.051499 -0.185866 0.611967 -0.269581 -0.712568 -0.526932 0.328745 -0.314547 -0.559631 -0.547841 0.332410 -0.012723 -0.235570 0.360283 -0.452802 -0.461510 -0.298927 0.400921 -0.627895 -0.426154 -0.246362 0.268432 -0.075160 0.228879 -0.343529 0.093390 -0.250896 -0.172935 -0.118386 0.271017 0.034379 -0.201503 0.097576 -0.499987 0.116871 -0.109969 0.487506
work -0.498841 0.178473 0.282942 -0.013558 -0.554819 -0.672060 0.156350 -0.103990 0.540936 0.099128 -0.623837 -0.145960 -0.192297 -0.102648 -0.326777 0.365546 -0.738099 -0.756859 0.024813 -0.356390 -0.106160 -0.441688 -0.323098 0.308295 -0.358922 0.223967 -0.379769 0.059961 -0.158762 -0.188857 0.029000 -0.532321 -0.080421 0.054017 -0.059877 0.019653 -0.859021 -0.003418 -0.003772 0.045138 -0.010027 0.012819 -0.290874 0.319114 0.203156 -0.204718 -0.239876 -0.214992 -0.225310 0.300977
gossiped -0.066262 0.404053 0.094998 -0.505790 -0.580333 0.105011 0.410462 -0.168709 0.683934 0.400370 -0.555742 0.079341 -0.606772 -0.238722 -0.561800 0.298073 -0.297132 0.187449 -0.446865 -0.339371 -0.671157 -0.403889 0.036884 0.562980 0.046453 0.599607 0.121319 -0.144101 -0.268014 0.394743 -0.051994 0.280282 -0.160412 -0.380940 0.268552 -0.271293 -0.192693 0.004853 -0.170868 0.222703 -0.157816 -0.172966 -0.673358 0.054483 0.098392 0.278310 -0.300422 0.066759 -0.094470 -0.009746
happily -0.490602 0.815514 0.390980 -0.674068 -0.427020 -0.496846 0.003309 -0.222186 0.332163 -0.359292 -0.684345 -0.226157 -0.002655 0.417537 0.054783 0.119061 -0.086886 -0.387752 -0.159375 0.180141 -0.407161 -0.642503 -0.447025 0.743030 0.157748 0.670363 -0.217082 -0.220624 -0.263469 -0.068736 -0.043548 -0.222769 -0.337474 -0.094518 0.270015 0.015483 0.147093 0.017311 0.293693 -0.219282 -0.047788 -0.421651 -0.778595 0.027356 0.082243 0.304071 -0.005186 -0.329116 -0.104504 0.146884
wrestled 0.054068 0.027619 0.594962 -0.143716 0.032884 0.055374 -0.038280 0.437581 0.177238 0.265556 0.097596 -0.507813 -0.264983 0.004957 -0.492897 0.391538 -0.250585 -0.219500 -0.574509 -0.100390 0.114443 -0.693602 -0.266517 0.491136 -0.443350 0.443505 -0.073799 -0.269455 -0.584802 0.039333 -0.008007 -0.237682 -0.118914 -0.372696 0.203231 -0.117635 -0.299296 0.408049 -0.288624 0.135908 0.173562 -0.019335 -0.024197 0.119840 0.144952 0.478657 -0.059758 0.036962 -0.405230 0.080427
screaming -0.257301 0.187477 0.610432 0.216949 -0.183029 -0.602035 -0.293472 -0.100848 0.423964 -0.419422 -0.980513 0.204552 -0.413451 0.111751 -0.210916 0.554674 -0.399890 -0.235795 0.085291 -0.364193 -0.523204 -0.572588 0.271816 -0.009337 -0.781906 0.608331 -0.334149 0.262272 -0.630429 -0.337488 0.555884 -0.184282 0.131600 -0.294840 -0.398938 -0.184540 0.047610 0.608447 0.244282 0.290841 -0.309192 -0.347081 0.034863 0.255447 -0.033859 -0.216683 -0.425672 -0.057167 0.161611 0.036858
into -0.186484 0.139154 0.220672 -0.341322 -0.473159 -0.326526 0.301107 0.296201 0.327885 0.036494 -0.720607 -0.650008 -0.544268 0.086845 -0.867257 0.395973 -0.492565 -0.096930 -0.262984 -0.413628 -0.012385 -0.523370 -0.439608 -0.027578 -0.066622 0.136823 -0.025044 -0.048822 -0.476344 0.312783 0.125707 -0.547401 -0.256668 0.039282 0.229207 -0.047491 -0.459692 0.292842 0.134622 0.007381 0.188727 -0.328512 -0.802831 0.169041 0.084087 -0.236320 -0.121856 -0.189593 -0.212128 0.341561
high -0.194810 0.239888 0.500979 -0.290493 -0.297251 -0.437359 -0.162299 0.335867 0.479696 -0.270695 -0.718267 -0.430963 -0.704398 -0.301386 -0.355339 0.172411 -0.495046 -0.309900 -0.333536 -0.104978 -0.420547 -0.909497 -0.352515 0.106886 -0.085945 0.129880 -0.014909 0.181476 -0.314012 0.256712 0.266652 -0.649728 0.244115 -0.279873 0.448723 -0.233567 -0.408227 -0.065542 0.262177 -0.205256 -0.059837 -0.459342 -0.495240 0.160697 0.010783 0.158332 -0.195452 -0.137297 -0.464748 0.289259
chair -0.594168 0.346658 0.339923 0.116667 -0.461855 -0.655260 0.328324 -0.420344 0.137502 0.241265 -0.491836 -0.623615 0.038073 0.083228 -0.496795 0.299708 -0.511555 -0.568627 -0.419050 0.271759 -0.080446 -0.550329 -0.298689 0.034801 0.147977 0.463035 0.168078 0.110478 -0.178914 0.178667 0.430652 -0.855848 0.071907 -0.204449 -0.262712 -0.499915 -0.449945 -0.181970 -0.021528 0.055844 0.255148 -0.720025 -0.186332 0.019028 0.052067 0.286026 -0.495612 -0.094275 -0.511489 0.328324
None 0.233199 0.433745 0.492783 0.012377 -0.114619 -0.246719 0.234407 0.017179 0.445993 -0.363897 0.153031 -0.243579 0.359699 0.026115 -0.545674 0.115922 -0.253110 -0.078192 -0.066934 -0.117111 -0.400285 -0.435126 0.352734 0.063601 -0.522395 0.387318 -0.116201 0.164458 0.200013 0.203224 0.255993 -0.487931 0.098966 -0.152857 -0.305906 0.088271 -0.415598 0.287474 0.122603 -0.025452 -0.326677 -0.213162 -0.115670 0.176372 -0.188752 0.006788 -0.004337 -0.363994 0.118835 0.398471
them -0.509538 0.076864 0.110608 0.103036 -0.454859 -0.754464 0.207632 0.038186 0.100904 0.032644 -0.772344 -0.454284 -0.635204 0.191018 -0.503619 0.123087 -0.496193 -0.666429 -0.022038 -0.029899 -0.456182 -0.539635 -0.273643 0.144021 -0.410769 0.098999 0.035749 -0.068475 -0.181872 0.044092 0.114542 -0.597282 0.268679 0.000268 0.115983 -0.060065 -0.836998 0.244588 0.187765 0.203476 -0.237247 -0.294759 -0.440899 0.200781 0.093898 0.086029 -0.304580 -0.557070 0.048255 0.089842
noticed -0.975231 0.102299 0.313139 -0.459677 -0.857847 -0.826046 0.105263 -0.030660 0.340335 0.052356 -0.457898 -0.613817 -0.305013 -0.142825 -0.238856 0.270110 -0.375261 -0.863086 -0.516709 -0.025785 -0.252230 -0.585010 0.209303 0.507244 -0.210406 -0.085180 -0.156546 -0.281908 -0.389211 -0.176507 0.257407 -0.404585 -0.110173 0.194862 -0.192307 0.060615 -0.131847 0.157134 0.030381 0.265658 -0.327743 -0.546117 -0.606549 0.208439 0.128631 -0.217889 -0.109158 0.188553 0.132410 -0.193256
tawny -0.410840 0.047201 0.796553 0.152962 -0.247376 -0.269036 -0.318795 -0.339373 0.543969 0.162330 0.073918 -0.436734 0.166052 -0.260177 -0.002656 0.213515 -0.616967 -0.437870 -0.484297 -0.342318 -0.037378 0.073525 0.437535 0.245856 -0.525863 0.356675 0.164283 0.415872 -0.677192 0.112529 0.111919 0.270995 0.218733 -0.556165 0.458043 0.409240 -0.555314 -0.212635 0.292075 -0.161091 0.268837 -0.508362 -0.220299 0.335214 -0.230920 0.207523 -0.510622 0.392415 0.119998 -0.194093
owl -0.715691 0.510073 0.456229 -0.215023 -0.745517 -0.254675 -0.056764 -0.154502 0.520892 -0.394524 -0.515687 -0.374655 -0.031079 0.248308 -0.723592 0.274810 -0.091327 -0.502035 -0.081691 -0.123136 -0.230184 -0.204459 -0.258785 0.058767 -0.536548 0.007359 0.229491 0.024779 -0.911907 -0.069627 0.355823 -0.078313 -0.168838 -0.222582 0.299293 -0.099556 -0.405223 0.081923 0.134665 0.182148 -0.006603 -0.591379 -0.288744 -0.101284 -0.004135 -0.284312 -0.619579 -0.207252 -0.013801 0.153387
flutter 0.079103 0.492167 0.082499 0.236011 -0.143951 -0.402691 0.292689 -0.140663 0.348354 0.334088 -0.745882 -0.391467 -0.152491 0.038415 -0.434852 0.731497 -0.791135 -0.317888 -0.462366 -0.551459 0.046390 -0.720073 -0.199517 0.131981 -0.108036 0.380922 -0.355718 0.338655 0.078729 -0.152325 0.265597 -0.417950 -0.338234 0.169080 -0.319794 -0.283492 -0.312793 0.003583 0.365436 -0.289647 -0.485374 0.199953 -0.221695 0.567088 0.274804 0.256898 -0.439339 -0.399896 0.288445 0.007476
past -0.219199 0.191633 0.277108 0.040809 -0.539065 -0.704696 0.117824 -0.273696 0.165638 -0.064835 -0.603067 -0.931932 -0.687428 0.268950 -0.503754 0.331441 -0.682951 -0.326846 -0.322583 0.188565 -0.018496 -0.694160 -0.310300 0.068297 -0.075583 -0.011530 -0.144444 0.132973 -0.582682 0.181447 0.470592 -0.264059 -0.239932 -0.464539 0.165814 0.059094 -0.819491 -0.223008 -0.131203 -0.227775 -0.219637 -0.468699 -0.689440 0.389905 0.239199 0.159240 -0.007451 0.018056 -0.100670 -0.052609
window -0.392923 0.162125 0.465693 -0.110244 -0.747921 -0.556459 0.058844 0.131098 0.421811 0.144277 -0.782850 -0.712340 -0.673948 -0.061952 -0.317665 0.099715 -0.218617 -0.647210 0.050598 -0.351654 -0.143359 -0.810739 -0.175375 0.075216 -0.207958 -0.068956 0.261325 0.098800 -0.234057 -0.092344 0.280388 -0.814260 -0.288770 0.152545 -0.253210 0.177464 -0.613533 0.467201 -0.073590 -0.022842 -0.616353 -0.398402 -0.374941 0.187611 -0.170165 -0.158190 -0.356523 0.000649 -0.605703 0.446967
At -0.626947 0.010841 0.410525 -0.435295 -0.351154 -0.844685 0.154857 -0.324588 0.235277 -0.143303 -0.687928 -0.700359 -0.501894 0.116683 -0.787657 0.265548 -0.405982 -0.176535 -0.532081 -0.314650 -0.697193 -0.334159 -0.095617 -0.045466 -0.000486 -0.046187 0.178034 0.263624 -0.026205 0.080582 0.317773 -0.515581 -0.181770 -0.195768 -0.249969 0.093930 -0.447753 0.560678 -0.217762 -0.041251 0.119603 -0.688206 -0.760533 0.271216 0.377866 -0.348592 -0.311988 -0.200882 -0.472244 0.202674
half -0.605851 0.377997 0.399470 -0.130828 -0.712491 -0.151009 -0.126959 -0.241574 0.419187 0.216842 -0.563688 -0.781160 -0.351708 -0.041609 -0.482849 0.336944 -0.237214 -0.778181 -0.486529 -0.006747 -0.228176 -0.596024 -0.594413 0.420535 -0.571475 0.375244 -0.001420 -0.005770 0.002660 0.001053 0.241343 -0.110917 -0.099605 -0.467642 -0.054196 -0.075927 -0.250506 -0.168499 -0.033818 -0.032203 -0.034561 -0.228020 -0.529483 0.004239 0.284994 0.246908 -0.343174 0.047878 -0.417289 -0.043227
eight -0.406536 0.555020 0.429577 -0.223486 -0.577336 -0.591374 -0.092013 -0.239901 0.314981 -0.052763 -0.836488 -0.716057 -0.649496 -0.270021 0.011914 -0.309275 -0.467099 -0.579459 -0.293380 -0.273910 -0.507686 -0.043388 0.020245 0.202272 -0.464962 0.418796 0.185421 0.347959 -0.307622 0.002257 0.016357 -0.059737 -0.043790 0.202012 0.052936 0.131843 -0.054018 0.059612 0.337075 0.172971 -0.464434 -0.597803 -0.778960 0.042509 0.326876 -0.007775 0.184473 -0.228807 0.139005 0.118281
briefcase -0.190507 0.284249 0.206728 -0.019996 -0.183471 -0.124402 0.118908 -0.031282 0.074230 -0.356075 -0.418200 -0.506431 -0.166442 0.111167 -0.003402 0.024906 0.024803 -0.058090 -0.047162 -0.329536 -0.324869 -0.597676 -0.485659 0.326488 -0.085564 0.646307 0.374348 -0.320358 -0.472935 -0.209376 0.576477 -0.280996 0.324669 -0.203308 0.499665 -0.225557 0.177666 0.013350 -0.307962 0.105489 -0.465739 -0.558379 0.267892 0.692531 0.602953 -0.466957 0.194539 0.262798 -0.310855 -0.277404
pecked 0.187798 0.331593 0.900405 0.085352 0.192777 -0.459283 -0.256711 0.253251 0.429764 -0.182983 -0.537120 -0.599370 0.138734 -0.242228 -0.622853 0.456094 -0.063136 0.151600 0.167019 0.280712 -0.485223 -0.552526 -0.262596 0.063105 -0.542946 -0.198727 0.188751 -0.047105 0.032317 -0.159815 0.587185 -0.043277 0.020567 0.015626 -0.288737 0.108723 -0.387947 0.066255 0.186155 -0.329245 -0.273257 -0.460414 -0.559480 -0.004659 0.172050 0.239819 0.051493 0.245375 0.349154 0.143483
